solver_type L2R_L2LOSS_SVC_DUAL
nr_class 6
label 1 2 3 4 5 6
nr_feature 9824
bias -1
w
0.0006751780551888211 0.01252814874168897 0.005001398502830651 -0.01041586464255248 -0.01200957904263512 0.002408323730755356 
-0.01224494179207769 0.002229637607443644 0.01322286338580116 -0.006637559999614346 -0.01282890278125946 0.0176965978657425 
-0.01951201670147155 -0.008971385201620653 0.02377071520442596 -0.01001788209404372 -0.0186344094785507 -0.003334690073846867 
-0.01249685932307803 -0.01035484668931152 0.0374600222485157 -0.0334275024245314 -0.01921598802663948 -0.00198861845211314 
0.0437301434213666 0.02385639819073387 -0.01106278077216846 -0.004074679108518848 -0.02020384320736102 -0.02360157058674319 
-0.008214922598511426 -0.01750390151859386 0.02149354690468167 -0.0180794794148953 -0.002664201916839617 0.005728717587370831 
-0.01576880479436488 -0.005780974349902333 -0.001802762160518585 0.003186555723090872 0.001346289244701049 0.01363227971584066 
-0.04426830644500961 0.02327274613060378 -0.003987286050714621 -0.00120222220078817 -0.007580165919738116 0.02081844745714385 
-0.02220465055706768 -0.01250050625915443 -0.003346105304849797 0.006329303719063414 -0.004882962536200804 0.02948351820388151 
-0.01591113503141775 -0.02755200807725563 0.00693918868321085 -0.0248252069134559 0.01242983863984918 0.03114848809417876 
-0.02469701544930544 -0.007038530007511352 -0.005267502013477648 0.02531857086122496 0.01282952924943997 0.00117750753519546 
-0.02464263849611268 -0.008948630830673359 0.02544276367493278 -0.01118831395460986 -0.02000468902412458 0.002799244955858822 
-0.0161563499021044 -0.02704600094535417 0.02410116623554701 -0.01019309027358107 -0.004605844325215773 0.003529182585997026 
-0.02061970566083213 -0.007134946417366654 0.02536934754106171 -0.01822719860911367 -0.01034026951795919 0.005028320592565666 
-0.02803901900280724 0.007817015878017844 0.01675054033022522 -0.02344634822086939 -0.001265810529560024 0.01951885706360555 
-0.02657511322881472 -0.00958521036098123 0.003154349082641444 0.008254530282766901 0.02884781336363462 0.001868555504417379 
-0.02693789402523231 0.01151944948551445 -0.001840508637145806 0.005534431092676998 -0.0002583012538445385 0.00162654781321675 
-0.02164641528146399 0.02541694346206214 -0.00637931307224435 0.01079730739337192 -0.004176392172942139 -0.002096943195445111 
-0.005310242652394175 0.01185145177749516 -0.0006420932800774889 -0.005073349642027726 0.004089588614141848 -0.004447793210629533 
-0.01137188491548141 8.988896382929525e-06 -0.004797953826212653 0.02737443694247055 0.01555795075078309 -0.01937479851812448 
0.005493498040283975 0.02056626030017253 -0.007169680217634961 -0.004323078709513811 0.005459245555298585 -0.01225694224864844 
-0.02349769932931024 -0.006232053447994971 0.02798333219320605 0.004446143331984743 -0.0364845259397689 -0.006679775547665362 
-0.05138630556973321 0.00483259975107391 0.02345915558827702 -0.01064457684261001 -0.01358062077951302 0.02747880336514096 
-0.02979384866272992 -0.009068184667110532 0.004084066146609624 0.002767743578514076 -0.01207865158050364 0.02625912581151135 
-0.02323689540700825 0.01804179783795891 -0.007449092307666148 0.01846818768157412 -0.01142768915926597 0.006383426142545091 
-0.01331989878283547 0.0214313364515661 0.01823490301154718 0.02147541283103778 -0.05651039382858819 -0.009895824564837379 
-0.007014008357333443 -0.01233316596945092 -0.0145791997165896 0.00244916815053625 -0.0002788382916065276 0.0195993949391163 
-0.01008507495255799 -0.002719808465078949 -0.01498224710044948 -0.002875304822823894 -0.01547506879803817 0.04036922306453028 
0.002355328119076685 -0.01282577708997784 -0.01489347614001719 0.01134204061339099 -0.01379312811275265 0.02659978479614163 
-0.003163942591446077 0.009311819612827052 -0.01408378151541965 0.01038586696743775 -0.008696705273610422 0.01013737497590851 
-0.02180640465490816 -0.00142946277959822 -0.01368144444533325 0.03089639163472901 0.01636298252841449 0.0008536775778171669 
-0.01488378734362575 -0.001091573916617637 0.02071581213689616 0.005885894541137197 -0.01845714418873702 0.0005578651086697371 
-0.03457580009940515 -0.002729763676675377 0.02979511443050187 -0.01003934574134653 -0.03274604301531792 0.01536683964774487 
-0.03625960491906031 0.002229158584927957 0.007241268308896162 0.006766793036603463 -0.02016095311848485 0.03769304377926522 
-0.04378241762382348 0.01791882792946048 -0.00439424000411697 0.008754071776255465 -0.02054319717993796 0.02762447796407312 
-0.0124975361073236 -0.006591994914339203 -0.02033069994024041 0.02363009901175448 0.01467485527415125 0.004242058784708068 
0.03010067744430666 0.000309920431865123 -0.02021789149891599 0.00773444538260222 0.02524963200874965 -0.03186166843233351 
-0.007738855258187288 0.0161238567813685 -0.01439967680611099 -0.008058841795265453 -0.01174961121802529 0.01854921590043095 
0.01707620400323231 0.02580042277965811 -0.01906875052867095 -0.002328841858323959 -0.03582783336831012 0.0003980869250497396 
0.01426401436678724 -0.006959223029682983 -0.01472770500914445 0.01255423449419092 0.004663906528175383 -0.02134712249885749 
0.01832017258284032 -0.004033537205935393 -0.003029617096393363 7.194930771643362e-05 0.02067330909511928 -0.03066850074162059 
-0.006514325540978844 -0.01471919662817496 0.005742851406272701 0.00191571268760176 0.0270494419940915 -0.0186339032946167 
-0.03801551013259635 0.003265084466785886 -0.0009462193161427761 -0.008367459557013932 0.01717534834974669 0.01780928728850952 
-0.03464351110206638 -0.01156488350815039 -0.003559944255228904 -0.001727960458089213 0.008648476035911059 0.03008990228025273 
-0.007293264379078316 0.01434939113789578 -0.00216160155333625 0.01857754680239346 -0.0225499408878024 -0.01737401133672452 
-0.003796800705863043 -0.03765452250919311 0.00906232783792916 -0.001597107642022694 0.02752379779241408 -0.00957323346706975 
0.001869181097212043 0.004264314644490373 0.001498090746462374 -0.007879357326160607 0.004049770467884634 -0.007973452920966736 
-0.0279093995518413 0.01007206554040085 -0.007672802454762825 -0.01598482876684884 0.01629103353483094 0.03096783567292444 
0.0006546297157945684 -0.008426556419399775 -0.006348364313102282 0.008456619206826244 0.0259170356992964 -0.0187414914148611 
0.02084383325448271 0.003789616289408775 -0.007054193056422312 0.002423930072432965 0.002598850184113455 -0.0178024920155882 
0.01066874981776591 0.02986164253228736 -0.01793624751210617 0.01149608490053556 -0.005377538227040634 -0.04371756852320439 
-0.00239430032771088 0.002517354502584475 -0.01052857661664781 0.001958194257788418 -0.00137559801191276 -0.006931145167075835 
-0.03738343386268281 -0.001854571201852939 -0.01676199105088681 -0.01204079127871659 -0.006175650785726145 0.05394791455021085 
-0.02802195015400242 -0.00866161655057951 -0.01183727220856927 -0.004708012019397323 0.004569490649835664 0.04658630775117079 
0.04527384074581248 -0.03909892743790491 -0.02183658495066525 -0.01095320604557473 0.04924126283593418 -0.01205139276569675 
0.08376533212766289 -0.0517481605504805 -0.02164379775560394 -0.0131306415115133 0.01866921751313633 -0.02393149043568334 
-0.003496593462523276 -0.0171697306618772 -0.01646309193364349 -0.005710023411582383 0.01866610725996992 0.0260898865096051 
-0.05392945852350341 0.01209138681909476 -0.01063911608278621 -0.01665356625756634 0.01349575176764883 0.05694605613227598 
-0.01678800369704296 0.01636699381078244 -0.01047786519736794 -0.002275483888931981 0.01946049840423561 -0.02060623189753171 
0.04354182206611764 0.006221805191005152 -0.01615593609746781 0.0008365948511240924 0.002652524295440967 -0.06546671960803628 
-0.01735019264926496 0.001292433206398321 -0.01313073464948954 0.01264595639550203 0.01337326616375078 0.002831344597908032 
0.01508829334961144 -0.02325258863260454 -0.01468211069863733 0.008850837558820808 -0.007990647558783216 0.014093405804167 
-0.02093694958567295 0.002992179007831255 -0.02354757685010882 -0.005509401296229265 -0.01087776379350355 0.04809507217476016 
0.02471869418256182 -0.01074459121848994 -0.0187066817949877 -0.004511596068693766 0.006875234814189221 0.002408398225140823 
-0.009428248187761274 0.05530920311255436 0.009074198410763182 0.02999422955049888 -0.05578266268505392 -0.06209135643246391 
-0.00346904946723203 -0.01909880671509187 -0.002485549441123854 0.01081045936462081 0.0007815242696602555 -0.01773481427796312 
-0.01666225608847733 -0.02226249110659045 0.008759417796638696 0.0002078850397090028 -0.01404585944396793 0.01146584058096148 
-0.04901743096244895 -0.02219927889456187 0.01342588683508343 -0.006429073403952888 -0.006269488391895659 0.02951613014138184 
-0.05172209966620484 -0.004283047770644313 0.03136668068343527 0.002475153014275984 -0.03471128141262352 0.01603151229065591 
-0.01111497189917403 0.002123212887392523 0.0001277033315315849 0.009032473910384789 0.01344874733429691 -0.007820994073967956 
-0.02249211010859372 0.00692792217466669 -0.01464206716514393 0.007973600469898088 0.02777214639103084 -0.03318464160544059 
0.006224759112684087 0.01456927859924317 -0.01324481336808971 0.0004933763928728672 -0.01461912966357877 -0.008235223088577296 
-0.02063123427481773 0.009455821964508313 -0.01791353118629933 -0.009295639431603019 0.008391996923710196 0.01592938088071656 
0.03326859689325622 -0.006951496806249079 -0.02199241542639714 0.002148244704221571 0.0312061019324236 -0.02848696179640016 
0.01428255868441978 0.001940156968290009 -0.01731783902006475 0.005312685185505529 0.01568894157679884 -0.009964489155412171 
-0.03118263757431634 0.01077149402840866 -0.02661551331772097 0.02234369351046684 -0.01495530858669404 0.02865558184908711 
-0.04232221901187737 -0.004380434749260783 -0.005660354395160421 0.009772605419471317 -0.03505056877312063 0.05940837828820958 
-0.05013128512770961 -0.003757319305427173 0.01195092067892455 0.001603965163540008 -0.01372801014616944 0.03647041731540853 
-0.01498141406334144 -0.0009488803101877094 0.01193763685325036 0.008626286174767519 -0.02894613902100315 0.009135772305216231 
-0.009644286068537494 0.01235973224385474 -0.009507544684781082 0.0177634868803474 0.01398432401348202 -0.01533818008335151 
0.01513911325250394 -0.03814933649709366 -0.004921556939271662 -0.01695907231432564 0.02789539184613428 0.002478979194736122 
-0.005669311282412196 -0.01652399071791328 -0.002863391894697741 0.007907113117249316 -0.003940169405996216 0.01843709164190789 
-0.03232532238756212 0.0172596341830561 -0.003405294952201733 -0.006953010861105325 -0.007979268025237253 0.03072574887842817 
-0.008134603031138013 -0.004231330351127632 -0.00258397517448184 0.006338293458933658 -0.002438276688860907 0.008368250869202388 
-0.01897992621825945 0.002152106045208422 0.01291879260961308 0.001962534750229429 0.007301727685459341 0.001435069657148276 
0.04056101921991569 0.02237176717003829 0.01564613087305236 -0.03492747751437222 -0.02006985410632153 -0.02588090661346402 
-0.009289421142179819 -0.006852289707854686 0.03404276330269475 -0.03564984102798593 -0.01180056799000498 -0.01166687927864324 
-0.0220898916625542 -0.01245907557485406 0.02229788389273902 -0.015777568296101 -0.01734672563888685 -0.0009851895211348063 
-0.01590904458970812 0.0002915173877869786 0.01556656094388437 -0.003276852452311864 -0.0175270557989026 0.007714405715048694 
-0.01287627627129647 0.01039928269591546 0.0008103059087263185 0.005789848515985528 -0.01206667026294196 0.006089583017681399 
-0.02456761998644008 -0.02123670781287382 -0.00777963489747682 0.03048756871231114 0.02768407465306742 -0.0114390139024571 
-0.01616588139712966 0.00939171269565307 -0.003383156411104053 -0.0007419535029687212 0.004848638264645682 0.004083781262324913 
-0.03126831648917171 0.02001649535367394 -0.003237153740737977 -0.002116232939199136 0.0139043578288614 0.009278239946999504 
-0.02637749665878668 0.006739751719815972 -0.005029603306045515 0.007023973407513275 0.01464518023053443 0.005309569211705461 
-0.03775644997572416 0.007197758212600625 -0.002475899078206464 -0.002036328868268493 0.01425701872383166 0.02025991976884652 
-0.04863724517902424 -0.001682725739293974 0.002983956159562934 0.01195348858815728 0.01427739457398002 0.03252256811919487 
-0.02719156480892409 -0.01233005216795313 0.02268821280008231 -0.01820993550640515 -0.01282920942598824 0.01200582988585642 
-0.02788567993293099 -0.03438482878101647 0.02908325874755377 -0.01193997608957669 -0.005700229465347304 0.009851279061221466 
-0.0347034397783075 -0.01460888206511819 0.02439549155913337 -0.005872681351696002 -0.01589682837033164 0.008201331802142497 
-0.04155804211423733 0.0001331570487312457 -0.01639072042078526 0.03909370449447114 0.008846470681525099 -0.005824876400437932 
0.009223916451414977 0.01071663887525012 -0.004046496837904071 -0.008158010008805896 -0.007721300190934447 -0.01552002640957976 
-0.01307512412229518 0.02059362833898057 0.007805583325234487 0.004301954158990957 -0.01640272464887663 -0.004507189836364085 
-0.02388581293636458 0.02062003901269392 0.01500667451684659 -0.01041153821168045 -0.02337906620213406 0.00263801271689484 
-0.02632796169501063 0.006483546357330822 0.01276065288878563 -0.006148814460941574 -0.002079676451277805 0.01250559386528414 
-0.0312567654897689 0.005834382072694543 0.0126248965766812 -0.006020536362846666 0.009033987243389937 -0.01834820440285045 
-0.008331560203751148 -0.01053130955426967 -0.009101476239273756 0.01659760350230537 -0.01169156635794494 -0.002526503291227348 
-0.00456673436483244 -0.01125601107428009 -0.02244608633881534 0.02375330382957701 -0.001615355620816007 0.00256196739433416 
-0.01716706484836476 0.005429152477190443 -0.01206491490793886 0.005371501163956169 -0.0143764675819252 0.02133216859168865 
-0.02062790847890099 0.007207756211578822 -0.003944499982637172 0.006535227521902065 -0.007774538474029833 0.007126480075617691 
-0.003969718327419531 -0.002196670149568058 0.003252095228977351 -0.01327299495041749 -0.006507566271244242 0.01286946839890797 
0.03300737883893853 -0.004608479043298082 -0.005344595021085436 -0.00863577464917205 0.01419087271930695 -0.02787788745027345 
-0.0476112604776809 -1.692616876860571e-05 0.001750662178211432 -0.006178810315503839 0.008074870612292395 0.009391264529507235 
-0.03688318299957688 0.03838682567248376 0.003074842231719427 -0.007512528222002541 -0.004887959195679483 -0.01574080029587874 
-0.02485463599813451 -0.02984145421874304 0.03157964259603403 -0.02727268022636901 0.001145608149195431 0.01589560932625096 
-0.02612263742908868 -0.01228234221016056 0.007582034458151671 -0.01092720546880463 -0.0001743925988335259 0.02733070867943192 
-0.00835808859913484 0.0353801107045001 -0.002090854588488781 0.001308099784718535 -0.002236587326731162 0.01111155756525358 
0.002090663922435666 0.001453392479655804 -0.01076081233620491 0.01205432872649005 0.003506464273471593 -0.002933520533267109 
-0.01066209135586355 0.02147422015602886 -0.0231086475931073 0.01421830420520859 0.006611482916253838 -0.01440724612085578 
-0.007157449341788405 0.01938314322877268 -0.009039885006640424 -0.01027063109241088 0.001573838808840554 -0.002965504897372827 
-0.002407793378549215 0.02300170953817552 -0.0162633497247817 0.001720757678485901 0.02844250038415463 -0.04696118874408942 
0.01109466314684061 0.03880500089740884 -0.01493407509151072 -0.01005592745341916 -0.01589675781333834 -0.02530332325515843 
-0.02765003154351012 -0.004549946482343169 0.0341130366643767 -0.007750450989150827 -0.01599174632584626 0.007736431256247168 
-0.02521481273279967 -0.01965546850818533 0.04526287949458616 -0.0311760836243049 -0.05908984899383839 0.01388570122199902 
0.005142209842210065 -0.03761386846309506 0.01723680236621156 -0.02606373571967417 -0.01674811893844993 -2.60290650704817e-05 
0.02488525362680356 0.01407549128120333 -0.01606843090450874 0.007306339285792402 -0.02597540865400626 -0.01455214927714124 
-0.007064204624840114 -0.008315754488883503 -0.02410136762532719 0.02290067997124933 -0.008078403292511877 0.003357942167367693 
0.00439515041148466 0.00763524582742482 -0.02241142453774251 0.001597760444256588 -0.00596885596197791 0.0209342609666117 
-0.0207793804797484 0.04002478135954206 -0.02161583019731014 -0.02361404246702037 0.0170605959432989 0.01493002125339492 
-0.02346223489073073 0.003492733442109948 -0.02613396732743492 -0.01387671082870598 0.05403619411389111 -0.01400679112143549 
-0.01088547566483994 0.02546058743563534 -0.02628812670493814 -0.01662313241151689 0.0449521198248567 -0.03987077882221666 
-0.01632053722225586 0.03272964636959165 -0.0124091956623656 0.009188625274002734 0.03445725434360902 -0.03690573985047713 
-0.01366356183170976 0.01718542603219884 0.03539938294804711 -0.01095069150560652 -0.03305532559541422 -0.03911102325707083 
-0.003683903020624066 -0.03817593863592023 0.04070814768548436 -0.02032365111872118 -0.03405102919106 -0.0198363791550359 
0.009612220501439088 -0.06427645083875667 0.0320652954257587 -0.0126151956876693 -0.02079324811548668 0.0101406318211834 
-0.005498438094308482 -0.04216325388183464 0.02072098395541998 -0.008181671622139191 -0.01497019495037632 0.01527061469633988 
0.06128513119486814 -0.04273309957981739 -0.02402639255720501 0.02494279402571789 -0.005794817803026121 -0.0001419532445971184 
0.05568947374523853 -0.0186767926968515 -0.01503512816848515 0.01148700697123731 -0.03174377237557735 0.0006014558378957489 
-0.03815516568781329 0.01889159180737968 -0.02878629135076343 0.007926765591389965 0.02308343912947062 0.02712435176460986 
-0.03314438790239826 0.03250434492809894 -0.02866974388073954 -0.006433907055757397 0.02817751197515165 -0.008859680349006556 
-0.005500081941780823 0.0319497354794617 -0.02825337260261693 -0.001248762962761136 0.05132024709504406 -0.03911864325955601 
0.006478242158542633 -0.004143816456922413 -0.02447702408563423 -0.005884369899069581 -0.001256025707159689 0.01211884666862791 
-0.03275322199753507 -0.02713980808446132 0.01597948619208864 -0.01254765014838082 -0.01114319769762 0.02393932605878494 
-0.02407513147844549 -0.03193636647588698 -0.009112925881629548 0.004559093949194535 0.01535583971201938 0.01124321096870379 
-0.002214591138543432 -0.03248366474732604 -0.009082179652201677 0.01375780455696838 0.00985930506229837 -0.01646668371100157 
0.0132844936076498 0.01500182871370548 -0.02412444464318413 0.0007300837841501467 0.03336125308891584 -0.05828287624795598 
0.03488085327599482 0.005565199908657641 -0.03023400867264829 0.0002789430613695629 0.04198414773183513 -0.0709216407708797 
0.003434124561009019 -0.001211919030263653 -0.004043110906397165 -0.000744015349058005 0.02175000914631541 -0.03112450882749081 
-0.02704226349098907 -0.01446666131302092 -0.02267518713834951 0.01463616731109744 0.005200207019857484 0.006462947112459371 
-0.02634963897687848 -0.01774799495375585 0.008350409665811249 -0.01116258131806022 0.008815232789042685 0.01906151968955991 
0.007949276752965683 -0.02927164651722953 -0.01795550907545605 -0.003942179232516231 0.02811157754067267 0.007892901461101193 
0.02989642727529134 0.01240490851835429 -0.04078872764478579 -0.005999387832209851 0.0009776616079798385 0.004025397599559465 
0.004163508688338149 -0.01548304074326287 0.0122278092202171 -0.002149078740386862 -0.01458378759641609 0.002689789343173679 
-0.01682503644471833 -0.03006452454161723 -0.005818172507942164 0.01145986402170079 -0.02505299029260902 0.03454501512633769 
0.02490133582289409 -0.04142589345993532 0.01755922605703212 -0.0003135766121397343 -0.03519674143686806 0.02527366189383319 
0.03898677820439213 -0.04215812898389189 0.002102026539197545 -0.002820758810116727 -0.05365623953995923 0.02544643637778705 
0.0521992070641829 -0.02220463668106283 -0.03836273847965763 0.03177667549114063 -0.04981148842243669 0.02329783343419227 
0.02549970797101046 -0.02799574242950547 -0.01825641046352405 0.01670851254654197 -0.026179197202881 0.01547018237660184 
-0.004985455824847111 -0.02772563890534697 -0.02109094911956752 0.02043514816140128 0.0009951202034556832 0.03938588705380104 
-0.004249040380872451 0.003632300806809765 0.006342100866276517 -0.002296474355340548 -0.005072597513659695 0.008295391280108939 
0.04862138770006678 0.004024314641989885 -0.03010720161030071 -0.01933845689455532 -0.01978481052993782 0.005332805062102748 
-0.04061296348099388 0.02669719790158818 -0.02897925838433607 -0.01252987353689563 0.06561096465844503 -0.02343512622920704 
-0.03037735168833734 0.02276184282500412 -0.02639641173385703 -0.0126119341168129 0.05316692443417211 -0.0237494533286993 
-0.04661056006900283 0.04012460476346881 -0.02797060069524791 -0.01049500429449319 0.02332757620774553 0.001178663952377544 
0.01426159019087809 -0.0009606897912069154 -0.01933262299997719 0.004133816856868076 0.0161153888836178 -0.01501736224489695 
-0.01435513316518319 -0.0177475812011495 -0.02776937939133917 0.03536163640484797 0.01298801807277649 -0.009541025865686672 
0.05298605028249156 -0.01638431490434727 -0.02259407276124685 0.004991157214374851 -0.01342764976978961 -0.0260837804073763 
0.02236546375914014 -0.02498033725797778 0.02982224772087201 -0.04656692324888284 -0.01717325465221056 0.001710303608869375 
-0.03873441757652106 -0.02612303705706581 0.05163110655067218 -0.04177630296359483 -0.05031522156027386 0.02300002025581251 
-0.01377438275567053 -0.01162746806408565 0.02257831681035966 -0.01647717313629526 -0.02881874885586154 0.02608894618232633 
0.0148336888258411 0.03855479682642757 -0.0197348874450716 -0.01279469291007656 -0.008895683054355346 -0.009452592449713398 
0.01393247236826669 0.009670372043079731 -0.02497392963224921 -0.01213276327826847 0.01311335703786319 -0.004567289486734717 
-0.02370873239294945 0.02205114293044022 -0.0216717262463473 -0.003385038252983691 0.01004053228629801 -0.004233645855505817 
-0.05570585951757383 0.01541418935035943 -0.03419520801013409 0.01335985969319524 0.02537576156957447 0.0360456327581355 
0.04329786013857035 -0.01811062404303092 -0.01357773688346837 -0.003956610368349529 -0.01602497134698108 2.890551823329445e-05 
0.04598779980657242 -0.02645370296456964 -0.01112667068112094 5.060038932026609e-06 -0.004093156616713491 -0.004354363480252052 
0.01055964815190429 -0.05439272097010389 -0.01545202626962703 0.03579733198564077 -0.01048087059151561 0.009448013699035428 
0.0223192532705608 -0.05794262974954525 0.04351487733331097 -0.03113556713389115 -0.02587512802963919 0.003711957547479584 
-0.007930957155118061 -0.04227452519789544 0.05901630889970863 -0.01920666025663246 -0.05216832869781227 -0.007431849431731267 
-0.01630311260618068 0.01163645775757031 0.03501691896917442 -0.01327684153505707 -0.0254878484325175 -0.008923392822350436 
-0.02116245056762071 0.02820797437573137 -0.01158406059373939 0.005696461033272634 0.03629756506401752 -0.01445639787483261 
0.01065479217530234 -0.002060030607046437 0.008689806770487186 -0.01118930092654451 -0.01855007606108887 -0.01656456393041637 
0.006602144795777894 -0.0002495654492187011 -0.01305179706281766 0.002081263060596604 -0.001608827175904679 0.01275973267933716 
-0.03151527436967762 0.01123327988018637 -0.01656025668464401 0.0002134647593387854 -0.01676734044379053 0.04884349157686374 
-0.009903243901390137 -0.002309063083670979 -0.007850668255905469 0.0004746825344544669 0.001183615316909308 0.003802990375134606 
-0.03037797894905119 -3.441739799954171e-05 0.00270625139035253 0.02295537802875513 0.001755199544284271 -0.005548271046484271 
-0.02140461868931585 0.01743421035693611 -0.005687226379865126 -0.0009777707296436805 0.00434039552300721 -0.01542030768223097 
-0.03435404840892511 0.007506473963481391 0.01420827656028454 -0.01275658895762257 -0.005906761169328226 0.0239549558531893 
-0.05105042533839817 0.02099105077779881 0.02077710889427076 -0.01187229099225982 -0.02152571920871495 0.0295435487029697 
-0.01835702688775922 0.03371795832073528 0.01111746927584626 0.004542025781187359 -0.01115299307731796 -0.01097410989901036 
0.01317286157670554 0.008191511552106784 -0.004128583910846978 0.006069509668393131 -0.01058074412654295 -0.0224427071024685 
0.01065157733763097 0.0392586988726089 -0.0170219492190068 -0.008825262188354001 8.574404521030291e-05 -0.06228426574430002 
-0.03406404176745663 0.04672126607138962 -0.01627379718372719 -0.01382910665182492 0.02719652930562868 -0.006036391536982029 
-0.02990918305475684 0.02835474422355497 -0.01026623770021617 0.0006071276999288244 0.0161274880833468 -0.009342203722336077 
-0.002710482919503479 -0.007543244403701958 -0.0008029376098086399 0.01341167199054999 0.004234377977766386 -0.008195362727074452 
-0.01895879007565481 0.01216497066762625 -0.002821184015235877 -0.0002069220596701909 -0.004794112463845882 0.02650198353974749 
-0.03226529803417121 -0.01607010477332733 0.002652234104993165 0.002971073489711159 -0.0004426705625930786 0.03231901280865959 
-0.02659507804379198 -0.02263851757098133 0.02163857340338969 -0.02216207484699126 0.009930857798193348 0.01689787371440713 
-0.03443664578275411 0.02934046866120788 0.01358673387964291 -0.02333774048907434 -0.006308184189249047 -0.02028613179921582 
-0.03585491788714627 0.01619204370599327 0.01242410062352731 -0.01505726026300748 0.0006452450039412409 -0.004097533981029391 
0.01467708021668345 0.02977858589881047 -0.02271514985294465 -0.00611571930215923 0.03056643137556469 -0.04409538221205357 
0.01573005725190436 0.01592869050368871 -0.00905362850507937 -0.02171144271255283 -0.02141301327139326 -0.01399082877547244 
0.03440372387605499 0.008724491276132845 -0.008331130750571345 -0.009204090239345309 -0.02482606987905064 -0.005302735043152839 
-0.0114755481539223 0.03413792336998915 -0.004273806157310617 -0.0004826571457993918 -0.008121465418026778 -0.02521023863264471 
-0.006905517076231861 -0.002775751395001244 -0.01634348398205305 0.03163912466996294 -0.003248684394820943 -0.009571325002210727 
-0.04818319076270407 0.005806253029938965 0.01666424950942304 0.007970025056928901 0.002748937094001696 0.007835769676143075 
-0.03822807000695464 -0.01319165615460942 0.0003339057939447427 0.02155936664077461 -0.006008197069568343 0.01518228162338303 
-0.02169682501169863 0.006454620737387139 -0.004475938830573956 0.006269196627317874 -0.0004816721505966847 0.006414634189778664 
0.01147926230181374 0.00518916912863066 -0.01401092078365307 -0.002803490449704617 -0.01606574049505419 0.01785959836812315 
0.05102810610790819 -0.0132410383197557 -0.003489434078893026 -0.01981017299900522 -0.001032073087102851 -0.005808105059092556 
0.01772950340690321 0.01096273296811197 -0.005226832822130711 -0.01142494484938486 -0.02975942202288423 0.00263897286437984 
0.0116094459202587 0.05935366801069133 -0.01262353637997989 -0.005208921423066624 0.0002941923002339743 -0.0363922582917213 
-0.007529069457804355 0.004814847104519971 -0.01144635771728741 -0.004828990501930239 -0.01619073942601854 0.01769877116798797 
-0.04361606514446986 0.03822331717944702 -0.008066426111227614 -0.004130294284980004 0.002351490515337904 0.01218039887715565 
-0.02739995182322119 -0.0050497082742495 -0.02356800243053572 0.03375557546366417 -0.00586162167807177 0.004175088268351648 
-0.0151310944958865 -0.009257048874781742 0.00167339436288241 0.0211767365769252 0.0001151982676717786 -0.02526821470786048 
4.105693551428408e-05 0.003009225680089008 0.00483375377852575 -0.008171593345073374 -0.004190598422260706 -0.01615002448477416 
0.01041059439151242 0.002824948229717828 0.001392134460061254 -0.003262484051486458 -0.01493247442019974 -0.001597616904793152 
0.02681713904959077 0.007835825360697895 -0.005808796500546529 0.003633884936907544 -0.01432323904188903 0.001857518836742334 
0.000618485893129365 0.00571584391691502 -0.007984468999712148 0.0007625766980402393 -0.01506558794403104 0.01893252984770225 
-0.02088372615771099 0.02277815719517154 -0.02485921728513913 -0.01674723072757864 -0.003325361927120871 0.02707295410988577 
-0.02605133881654335 0.02842186769004884 -0.02386672343975431 -0.01759737917775623 -0.01927344375892938 0.03853763099884239 
-0.008997648525939548 0.03321593649479402 0.006675534480072197 -0.01118301151249316 -0.05291611548493312 0.015384576961801 
-0.01337457432697008 0.01068971232480093 -0.0009674837795218614 0.006840401856461259 -0.01664053303817734 -0.005744507604926558 
0.00475316491636142 -0.01696298179424381 -0.02083424406109807 0.01936367102076033 -0.0119790104727377 0.002777475914947329 
-0.03611184053941919 -0.003580268693639288 -0.01257752423321424 0.02224005857611537 0.0133181967371757 -0.02049981898674131 
-0.02901926094833088 -0.001667639158547569 -0.01874904445752822 0.04732643424968547 -0.004630217391705414 -0.01240688515720882 
0.008806357862737585 -0.01216899341823458 -0.01376609727301891 0.02070438198498832 -0.008137975312186926 -0.01109251078261348 
0.01033357579687577 0.003246527899617839 -0.03576873021721576 0.01450770951592836 -0.01291940794730221 -0.004514543146313189 
0.03326141874014195 0.009764356807496766 0.0008227810943194207 -0.010579786227418 -0.01624209026003332 -0.02595997230848255 
0.03913116647364231 -0.01606270471410124 -0.01812859835168248 -0.01449598397884348 0.01178776884030221 -0.01507112485566748 
0.01982501484116311 -0.003757704613053829 -0.02083822296124105 -0.01057509124383489 0.01390442724154848 -0.02868032701674491 
-0.02065652110864146 0.01201199239407971 0.005707560018897551 -0.02136567785681445 -0.03349941491392534 0.01075969004787486 
0.003956901402466018 0.02715033217046419 -0.008263673595201812 -0.02553803708393582 -0.01010113337422168 -0.008380183126460185 
-0.01009278102982033 -0.008419307905903756 0.0003356552384425714 -0.01225046021823172 0.001068104578252163 0.003536490623920895 
-0.03787604299164887 0.02726301265919965 -0.0004309240548464556 0.00189508781667542 -0.009721377010774142 0.003640379503199049 
-0.006315400432566193 0.01999184341845583 -0.006876074904155549 -0.01089560955737678 -0.01416151189616898 -0.01235550340934472 
0.001255285900447564 0.00553859646922213 0.0006755944563504272 -0.02234811891806396 -0.02886721899350328 0.01625811582649111 
-0.01557698750690508 0.03446175532254775 -0.0365978346062558 0.03459644844122652 -0.03108647361472562 0.0005551806333123767 
0.03742402177613578 0.00965273955325986 -0.01546565491099272 -0.01167198172041243 -0.04029838605616982 -0.001000260523413878 
-0.03361979379866193 0.002963229275703608 -0.03186330385718451 -0.01519550167649069 0.04913310247804038 0.001011213520524338 
0.02561293941479088 -0.005593198164596483 -0.02215563462173205 -0.008618962680603068 0.004277972327866999 -0.0004236568745991353 
-0.006697773119821646 -0.02025486104974625 0.01548246823899667 -0.01310685163358407 -0.00341855581977032 -3.270221164820999e-05 
-0.0627014832111045 -0.001779411923853937 0.02807812751305401 -0.01600986494694603 -0.003137302962871832 0.00616913924785536 
-0.0267502212650983 -0.01629846007440884 0.01083308730480608 0.007609262948520991 -0.03147440669188581 0.009536146830536227 
-0.007376015426461172 -0.0131138751773389 -0.01641847479177054 0.01917399774854439 -0.03470664564478038 -0.01167881190164285 
0.01043851084216093 -0.008421845375415793 -0.03301022999003579 0.03586082626400398 -0.03419317638644432 -0.01071910896105618 
-0.05239467234297645 -0.0006123291368623718 0.007006543014370404 0.008064993036255507 0.0009427086016695851 0.006951997675895528 
-0.06542277767222045 -0.01241811597024303 0.01729862674391028 0.003668698637380652 -0.01198804259286482 0.004861461155025494 
0.0003829993206684262 -0.0222980507142486 0.02753985821175287 -0.01105647732657638 -0.02511880687787373 -0.02804764107368345 
0.07928208026367423 -0.03143852721059663 -0.02292968901377023 -0.01117749808467878 -0.02144132168461935 -0.02089447459853563 
0.04947821566325655 -0.01197551034331461 -0.03436638516647431 -0.003503402651893351 -0.003571757637581576 -0.01697198849823108 
-0.07335376366431179 0.005358834430022535 0.01470359074066811 -0.006687158606746208 0.03394116430652489 0.0007023715070727484 
-0.08654322170488842 0.02432142825327912 0.03309838982987765 -0.03100916324395287 0.002629949334281246 -0.0005719821558103774 
-0.05595172665510185 0.03710509922464048 0.02823402297309724 -0.03540359642458977 -0.02957753110763247 0.009708899338471277 
0.001272673184283135 0.01576835495839959 -0.01950890237058362 0.01259223476879938 -0.01906825097408188 -0.009166465895808823 
0.0114454613600957 0.01009570781454877 -0.03352132795055921 0.01547297943173682 -0.008763792665102493 -0.007048736942179208 
-0.03111356625514762 0.02399967958543888 0.03107415416211093 -0.03284660405812265 -0.0284881080722495 0.006601151742647246 
-0.05848872410064398 0.04545660784795996 0.04390153057426964 -0.03159880145210279 -0.0358199842710986 -0.02776851171047407 
-0.03895101749505945 0.01572515970401814 0.006148998443432449 -0.0005018961474141118 0.01803288857222148 -0.009340582532285081 
0.04494946585436128 0.005952529415299145 -0.03769397479792353 -0.005896657129709149 -0.01177286685620249 -0.02426310039372678 
0.05980341352711482 -0.02641849004253248 -0.02477195523658826 -0.008000791936263636 0.01147201486979173 -0.03634617379372522 
0.03103517083611151 0.006829295961170261 -0.001064473755033555 -0.01543439634536708 -0.0156570202757035 -0.04065872432889023 
-0.01799362571240792 0.01983443142205739 -0.03035317115982236 0.02778077318641744 -0.01914506784025147 0.002373747902507629 
-0.02868993964324518 0.007721547820549808 -0.01467456973087585 0.02589445566730195 -0.0005691941322088397 -0.009802647097470082 
-0.03340168261324623 -0.003989263194203998 -0.01788040524594853 0.04893068973410859 -0.001968704283723822 -0.01337709556440418 
-0.005002904120491813 -0.01541119845828433 -0.02338721434397434 0.02729882232934612 -0.009277861349123709 0.007299570335310059 
0.01675543461830432 -0.0157220833645065 -0.00179542929920038 -0.003714295456038595 -0.02026833472453663 0.01065134118925224 
-0.01521637200329118 0.003901251166362427 0.007944506944416108 -0.001406004811644465 -0.02659688867755428 0.008742475343613205 
-0.05800170102761874 0.0252942529738244 0.005685271025099974 -0.004351569175618597 0.003204080725620105 0.0143934491349313 
-0.02653621675370698 0.04925762045522498 -0.02990008702377838 -0.02050796220164027 -0.01392339549024191 0.01155824815191624 
-0.044642800913514 0.003300759195411233 -0.03486225823942894 -0.0124510683904751 0.05578837576175897 0.002555025143276921 
0.02445291930685232 0.02109530022814663 -0.01201601425848788 0.0006183719484661881 -0.04500951568652748 -0.004360621568099026 
-0.007849979910589795 0.03840283577664413 -0.03372516813025279 0.03339514833411635 -0.03925650292201608 0.005082364686074463 
-0.004559059437026792 0.01817731368139051 0.02150617028816217 -0.02547618827751122 -0.02155129706897722 0.00274055867236461 
-0.01081728296585645 0.01994997723841119 0.01276033592615276 -0.02967058540061339 -0.01507648414193265 -0.008013252744079949 
0.009267892998895685 0.007221245457307328 -0.0210487424992042 0.00981611981190488 0.00547998362885963 -0.01415260181344071 
-0.02733016753382881 -0.01624396057714996 0.003882069261691024 -0.0125602252733667 6.222686809571456e-05 0.01826887255438339 
-0.01636668083925944 0.01180283469487853 0.001319738755012773 -0.02964229920896208 -0.006059884555602285 0.005018028751290327 
-0.02103336090102167 -0.008245083816319153 0.01056014185509789 -0.02568047976794409 -0.009285478002554498 0.01559685196411503 
0.03021487333602051 -0.006919207365295954 -0.01332219793419073 -0.01793056852412214 0.01542169260013637 -0.03736287188828019 
0.04578797733056615 -0.007411895707158692 -0.01512430200301571 -0.02572792334709451 -0.03560846763131183 0.008367967390350201 
0.05749794949789887 -0.02287328836337685 -0.007522224690371331 -0.01668089065458296 -0.009633022357765192 0.008190972613703325 
0.02105007592081879 0.01372284256939283 -0.01617777863972472 -0.0208486936717164 -0.01734209733775552 0.00777021782028584 
-0.0320317883444625 0.0159001415556354 -0.004660837737642696 0.001275135662723981 -0.004495212171743983 0.002083248769559319 
-0.06045402208996586 -0.01313406150828131 0.0127500717167579 0.02859980132745413 3.313572986417904e-05 0.007405373750908691 
-0.04021637421846169 -0.02332429166668053 -0.0008946983752987038 0.02036409354047193 0.007542937558912204 0.009830640312565565 
-0.01476830004723821 -0.01128495829078325 -0.008961792510754222 0.0245420309897052 -0.002957859777330101 -0.004722396351562465 
0.0011397601375252 0.03614358975454404 -0.01643331153011478 0.00624130974863927 -0.008954206991821312 -0.02429725468277847 
0.03821538863327114 0.006216942030317183 -0.007369520926568234 -0.0112804776025253 -0.02159119805628314 -0.006825432336377518 
0.009367415789003785 0.02550230993781107 -0.01356382772676486 -0.02352044645390623 -0.03731759341012529 0.01913802543272921 
0.002128706982225521 0.05403066729640336 -0.02799432056646464 -0.01316844335226537 -0.0484842399924395 0.01670568642780643 
0.01651661973800852 -0.002275199870127121 -0.01015678093067246 -0.007494552560942713 -0.005712684692333833 0.01598012984481194 
0.02373135445103429 0.006251927147027394 -0.01146949892034842 0.004550741308260894 -0.01032426396846243 -0.01500902534811793 
0.01279159248893987 0.002884744624602005 0.01135786307775341 -0.01111373886724397 -0.01990720369418522 -0.01094553780725124 
-0.007645441960417857 0.003255218404299959 0.01090182314258494 -0.006376306092598961 -0.002268097213650558 -0.01502580081187633 
-0.02275752629918501 -0.002356523616690066 -0.01601840548357574 0.04456973418542411 -0.0006871952598751186 -0.01217045375825475 
-0.01131841074057621 -0.02297837128125396 -0.02936962553563881 0.05116921214225635 -0.005725127327898599 0.005833275128773789 
-0.02457964381595177 0.004741904880169502 -0.0003481438575251983 0.002231398920711599 0.004793114094536073 0.01565097074610635 
-0.007946546654388108 0.02381871773505142 -0.00635484638990181 -0.00892146315205599 -0.02458774484798169 0.007925807944618581 
-0.03752416976578194 0.06468579962532514 -0.006727175335435411 -0.01204050441736623 0.002724926347689073 -0.03083691831555388 
0.002730854256818494 0.04795884706771918 -0.001711819282121703 -0.01880487150191497 -0.05513494790911831 -0.009105161526454112 
0.006325400787044656 0.01808342382808426 0.001210647898318185 -0.0124991941327766 -0.02927350934301238 0.01504038428714294 
0.006924675862422798 0.007051349328817618 0.007610499386784673 -0.01770623376001013 -0.01892161510397165 0.01555310067603984 
0.02047068792482313 0.001993787417265389 0.01266510591817491 -0.0136161175905306 -0.01335795558080701 -0.003518427485630633 
-0.009199259839800522 -0.004391500721887047 0.003418825218299452 -0.01781946075233169 0.02555859676505291 -0.0103186678769033 
-0.01189008400943756 -0.002835833326177293 -0.002602308463448914 -0.005591623094981787 0.005090085036871402 0.0003482065193771825 
-0.007218786378624027 0.01223928902574916 -0.001555657351728296 0.0002335736041710139 -0.01402969481695776 -0.001340908049365255 
-0.02108047359634727 -0.005427183395407929 -0.006947537778714745 0.02307537623178411 -0.01229831197451978 -0.005034375229787998 
0.01854716216450425 -0.001887891444635577 0.001354501905082165 -0.01848410392968538 -0.009029234737999783 0.004718191118703227 
0.05397893243551202 0.02104516751907715 -0.006102081985780923 -0.0278339864785876 -0.03753970466194867 -0.02141333852556411 
0.003300915830306657 0.03262876943751828 0.003793891510164836 -0.03844594292091786 -0.02304221139508784 0.0147715830669964 
-0.003972607995369351 0.0241049731237151 0.001065827826299434 -0.01320011443174537 -0.01095767908419818 -0.01185509922998855 
0.002786714700487983 0.0171788449486622 0.002888361347460866 -0.01580593653016511 -0.0113395498116592 0.003731880726601008 
0.006106638290276055 0.01014403761019855 -0.00422523872073025 0.004737805565451766 -0.01409269394395093 -0.01846424871548284 
-0.01684501068768318 -0.0003196452490363173 -0.004167939263853061 0.003803484679415541 -0.01371181049659556 -0.002699911217445123 
-0.0109924814994274 0.00860669915781328 0.009413178606060753 -0.01741459257914883 -0.02065937843575122 -0.01038240414963919 
0.0165211325315792 -0.002123596230492679 0.01145841621626234 -0.002367985912959909 -0.03009483137000286 -0.01102651933455055 
-0.009611256772903375 0.009569092610750186 -0.004471495322058347 0.02890075928061675 -0.02218082263908531 -0.01725273521795433 
-0.0122172168585135 0.01155567974531519 -0.003191380986030836 -0.01142769019353909 -0.01819738636436319 0.01381047557660808 
0.01832139400363659 -0.01937718347736984 -0.01322706472352539 -0.01393486232377238 0.001696852664416167 -0.002249801175980143 
0.004417859904251974 0.01947098069272981 -0.01047362620291988 -0.01670593703440387 -0.02784158774753856 0.04295634648609463 
0.03245570649477864 0.05202666874898634 -0.01781732296177183 -0.02279112826422634 -0.02420320986345878 -0.01100572444651943 
-0.007039176566221151 0.04612327979446134 -0.01880188291451719 -0.008543065840824017 -0.01022037954041627 0.008950942183918257 
0.02784405196022451 -0.007333585720081272 -0.040897182138738 0.04326884603507156 -0.008884596412345529 -0.01399984622815494 
-0.01613481042653718 -0.01971519754325138 0.03774979545961202 -0.03083543364249342 0.01860526196666196 -0.02371457496186991 
-0.001516184424066492 -0.011949096595383 -0.006367527883779802 -0.004165584602311712 0.0002749277912223978 0.002703562620276367 
-0.0006911340079229474 -0.01884544728019096 0.005979149090342291 0.00272282933692137 -0.01997691713626868 -0.0007093711380978854 
-0.0139449402552297 -0.007959136007161584 -0.01233022432052846 0.01324100326769006 -0.02660062912940956 0.009222373572981925 
-0.02437274340132864 0.00140286998628836 0.02302944231531378 -0.01232830439839845 -0.03504694283253434 -0.000561471743758899 
-0.03598207900219405 -0.02643554865755466 -0.00945080677097623 -0.01571708051157368 0.009624378664131428 0.02128627561830646 
0.00141239434759659 -0.02312943318936692 -0.003031158384868179 -0.02070756491772612 0.004237761709308873 -0.0004336454580123023 
-0.005299304847185396 0.04241041215571374 -0.002870335348325894 -0.02493118369527429 -0.006636670309282435 -0.02519646020273209 
0.06785807039596535 0.03060982320735564 -0.01698644116053093 -0.02001209272230987 -0.03747556217777168 -0.03153796367549042 
0.02340410570083185 -0.02362193826708228 -0.02274964162547872 0.03552715274233539 -0.02400802511702001 -0.01776267782438896 
0.007636888941917172 -0.04374716309931606 -0.02796611650724653 0.06989398497384468 -0.02045324438210709 -0.03680167302783699 
-0.008896323892933962 -0.02010124118652272 -0.005714876285043179 0.01195052028761176 -0.01767812072911704 -0.01632173414653957 
0.01205204455841228 -0.04000724754365605 0.01126776780485612 0.001323922856460875 -0.0201457218389079 -0.008128263014336059 
-0.003286162364560785 -0.007757675006517203 0.01662680132028295 0.003741911215811025 -0.03731822672833695 -0.01868554974349771 
-0.01153348291334736 0.0007335999659531046 -0.006712555817942556 -0.02170100828647089 -0.04859763778354717 0.07031912439314737 
-0.04152747722993779 0.03408823543474624 -0.03316537901120856 -0.02172047037397325 -0.01328545299089082 0.05064548869617418 
-0.03904509658058605 -0.001623301903412607 -0.01891938696732828 -0.02346680050064125 0.000620323127000842 0.05088606665524024 
-0.02623932717163462 -0.0124361772046729 0.003266221840962631 -0.01433938979314486 0.01602303368955028 0.006016751915055862 
0.00332165851146548 0.02190299486737232 -0.002824444109728035 -0.01221472409406948 -0.02311162512848053 0.003331334108743395 
-0.03081043874135131 0.01646142262982293 -0.03901873291860425 0.04363036339496524 -0.003568948649094678 0.02772562688791818 
-0.01062958969088717 0.02345564660825803 -0.02305196919081277 0.01979333905682282 -0.01710084122363287 0.005544771201281004 
0.003725809258369952 -0.01350160587860732 -0.03959517619486313 0.04252765393564855 -0.01128976221153845 0.01152117061282528 
-0.05561789317853726 0.004591353240299505 -0.01741741485494096 0.03103005312292535 0.002552094421818626 0.01347728183529085 
0.02317045222744103 -0.01102216224702509 0.02493154822393858 -0.0254892549588167 -0.02157428372385593 -0.01314031565458437 
-0.02982787550605197 -0.003673450509779027 0.01056243337405818 -0.01049377090661261 -0.0005085383287969394 0.008137367080058853 
-0.05881883028587141 -0.006112460827147937 -0.01916357962773832 -0.01618504597629362 0.01394201165214627 0.03912071021642812 
-0.01473170549048211 -0.04158744681952783 -0.02296193479502171 -0.01715809436655141 0.03829485835797693 0.03653546503374124 
0.05946886062528751 -0.03476557201386357 0.01342615978244492 -0.01645082031652032 -0.02117699435948987 -0.01794848889866416 
0.04018348057802026 -0.0002079272571711261 -0.01314614202470696 -0.00182234905711164 -0.03142623822195023 -0.0008928367493211923 
0.02163640138613194 -0.002757550823518968 -0.03698281966689473 0.03515360902051713 -0.005927519240867109 -0.03685018826836373 
0.00441620000056361 -0.003184709851213351 -0.03641842010029241 0.0408222307341716 -0.01442508733206183 -0.0425817957828462 
0.0009022061766073523 0.001887454859526965 -0.03724134516693746 0.04605294261120899 -0.03893177061861333 -0.04554093982963307 
-0.01124847728305011 0.003027325799136198 -0.04010892562245146 0.04290783925392553 -0.001052971573167649 -0.01784523359070282 
0.01831439301550181 -0.02521527517799646 0.001219265480111909 -0.0118787253972307 -0.01105668279534195 -0.02859745974034231 
0.04661799727517189 -0.04747113100592747 0.01322761526528986 -0.01060839758015322 -0.009618568278149267 -0.02890538055240603 
-0.01744231732729206 -0.04456562274363383 -0.02442352097581649 -0.02341371363547711 0.04379248103432336 0.03847940550135619 
-0.0369449612748028 0.01581728898695179 -0.02069541300789574 -0.01895097914823302 0.03176990688646736 0.000145537388011905 
-0.02638130813631478 0.008446304699953793 0.002206167853434639 -0.01992238688483604 -0.005117222873984474 0.01717431200515604 
-0.02170852629654219 -0.01081729839151564 0.003894431044841835 0.0004557769787997881 -0.001082671230863012 0.011480910142772 
-0.0157076643073644 -0.007316766110239958 -0.0007444202265142723 0.01274721490341586 -0.02740893558071964 0.01505909205989918 
-0.0169441798756774 -0.02485704469088394 0.009642683121853726 -0.01266322700926728 0.005239840043039548 -0.002848121370484587 
0.006329497514450838 -0.0254773481227432 -0.0220871733897813 0.02752461361831012 0.008731227127311676 0.0008335811107571501 
0.01117091315684479 -0.0126492182216499 -0.03483257242841321 0.04081922479498666 0.007481116049469351 -0.01062755695790489 
0.02066640852779401 0.04684097786758984 -0.02464956074347506 -0.006038735337826928 -0.01271871145166294 0.00535668162626781 
0.029387849360047 0.02906475888020676 -0.02832206853736337 -0.02004776271317096 -0.0167223394048331 0.00564382875926284 
0.005680876658319441 0.0201054720396603 -0.02204970733268963 -0.01647038138524002 -0.03269934866506004 0.02064679774021194 
-0.0593387815008926 0.01311978550361696 -0.01561420608020504 -0.02690005089512801 -0.046744739964025 0.07172239852399573 
0.0118905391869564 0.008089723970051459 0.007994682589596168 -0.01801665244177382 -0.05855729524674082 0.0257215411297369 
-0.008790503894600373 0.007986023998089566 -0.0001013957897716788 0.006992266828328501 -0.02693173118872255 -0.01581295294326575 
0.02123314046667526 -0.0301208528677228 0.02425303428525584 -0.0005181491622914137 -0.02158165206237032 -0.02101717604460194 
0.03137905798295791 -0.0224954550622601 -0.004088775061751701 -0.000684564549057266 -0.01552106325102819 -0.02723885159020191 
0.01646054960464358 -0.04295342866770226 -0.02212713523010116 0.0496190760476195 -0.008194921411962496 -0.04299075324291286 
0.00578335420698341 -0.02510825689660929 -0.02485450268828926 0.0443157723339786 -0.0124921098044266 -0.006870278698137709 
0.01553637089570386 0.03388588577689321 -0.01208705136504257 -0.01951603410517417 -0.007448710369726235 0.002434886880771802 
0.006781130590906493 0.02104952408244499 0.003464664757839011 -0.01826507024731366 -0.007140666687102811 -0.01449481278126717 
0.03273713264532239 -0.005061049607272621 -0.003838495876927842 -0.02279809957572627 -0.002563870958375396 -0.01372540833551163 
0.06799392853820373 -0.01342973195647779 -0.005294160878322646 -0.03569677139032598 -0.04475209410100351 -0.009211002183116542 
0.0478793087205252 -0.01190321092619607 -0.002115151618901061 -0.03066032576447431 -0.03720921056615337 0.00275291977315494 
-0.02235572386666735 -0.009167764869979278 -0.01145085297419247 0.02983012842328134 -0.01892426907707466 0.0083957552956016 
-0.02195827617446052 -0.001836471962088655 -0.006075874099677222 0.004165230167021338 -0.002489589388789591 -0.0002961169952141961 
-0.02470495722601785 -0.005997563143330382 -0.00504464157853214 -0.01142414875550674 0.04784219367958615 -0.03018924371850419 
0.002237773158320796 -0.02313952748805333 -0.003557781344700688 -0.01108276768692341 0.02558899360607158 -0.00109358531240324 
0.01852639317516028 -0.01349205996997439 0.003407515950279573 -0.003834382314970151 -0.003056869952054262 -0.001244017601282505 
-0.008411409206708633 0.02378221024708732 0.004025095593526023 -0.02342986009637502 -0.01753964784422257 0.03154973707666129 
-0.01818562525934685 0.02532560450679851 -0.002012782469528962 -0.0135853013220859 -0.01255654062171515 0.01980035209730341 
0.04139116390666307 0.02605494378507803 -0.005813341804668641 -0.0181226731369259 -0.06770613507072866 -0.01843250590441558 
0.05371771411031109 -0.004546807092445755 -0.01894622499010114 -0.01251083004971274 -0.0196390267613362 -0.01491910295192373 
-0.01921154906295472 0.01509225915845679 -0.01268294803552184 -0.009627350855075044 -0.0101946453478758 0.007219968611110569 
0.001733723475630546 0.0004734124323012282 0.006373972302614306 0.01569307777980241 -0.03396770453886946 0.003760337570124154 
0.01478976009226199 0.003833272666280684 0.01522646272920627 -0.01764160800874679 -0.02802330187331038 0.002711971269384263 
0.01604403496619796 -0.002568274705561234 0.002579672463711303 -0.0124008334392378 -0.01725373228838488 -0.007196905775746705 
-0.0114007985684727 -0.01244837085913352 0.001707451878001648 0.01857214259908991 -0.01095848495157424 -0.01536504653169517 
0.00996139372487331 -0.0008287186656773905 0.0008810359700125634 0.0118523120147468 -0.0109322283013162 -0.009514641824915317 
0.008210742910462752 0.01750059114279939 -0.0008128847730704187 -0.002290868059297324 -0.01590478221099269 -0.006006683565215045 
-0.03386388571760566 0.04365169301539897 0.002884664648202551 -0.01939262808313478 -0.005225886107601082 -0.01984167484949125 
0.04526311827967013 0.01296424609599146 -0.01203926808057658 -0.02816093261355452 -0.03092066161901792 0.02663201606197201 
-0.003772950981490502 0.003758435226576967 -0.001619620389615754 -0.0008261229434687044 -0.01827699794622949 -0.006097027907681182 
0.004494481277352038 -0.01006850304492227 0.001860286991101813 -0.001276966887763277 -0.01321259838991421 0.004856851057582321 
0.01954223357551194 0.0006661362261142402 0.001866836226304135 -0.004818264795326144 -0.03030795538960839 -0.0004990656282970609 
0.007824597825923778 -0.007028983194598775 0.0009758492407199422 0.001464807109293887 -0.01712512483173173 0.01406608959254684 
-0.01996240792656311 -0.004719282300796994 -0.008822086985956152 0.002462135521663511 0.03589283188702447 -0.01044359892708037 
-0.006675805101161696 -0.01286584892522108 -0.002846766712251627 -0.008252192161579642 0.005840110841255038 0.003440500900443379 
0.01827629923355683 -0.01867398241986428 0.003444780673116979 0.004391120404926173 -0.01387515795071529 -0.0005765057343074262 
0.02679424612934641 -0.02833030984038715 0.002916437447252639 0.0190899212734901 -0.01784612909568429 -0.01988274042350894 
0.008632481452433295 -0.02404030579827009 0.010290900986842 0.001556855904562376 -0.02414798358982569 0.01266416959541929 
-0.04742523640502231 0.008951363896713358 0.0003606314289577028 -0.0001444002026329711 -0.01960116175107007 0.0261240763029927 
-0.01473490319172874 -0.0256886429257355 -0.007990129816223761 0.01380043641495653 0.02454658333733688 -0.00347212990221839 
0.0003775249091302886 0.0009494790546608086 -0.002072242526001894 -0.008774455965313271 -0.008540022527700745 0.003348537458798804 
0.007154165354020865 0.006634012762336981 -0.00469975002290755 -0.01982779787196629 -0.003895825928763215 0.009132236880464073 
0.04661169673024854 -0.01267259273555002 0.003819273624002911 -0.005808986068487177 -0.002862981706706533 -0.01797860915514512 
0.009825713993422218 0.01664467322633637 -0.001011642273709813 -0.007539756178193195 0.003272966775674984 -0.01932269222936761 
-0.02648657780953467 -0.00158928127885152 0.0008816983930671835 0.01497893916820085 0.007821298450027396 0.002186222374096841 
-0.01635678530206743 -0.02951163877397229 -0.0004899407371556261 0.0123575596306538 -0.005152722428047263 0.01618262251895651 
-0.03518569594917591 -0.01518668903776916 0.01923734258079308 0.01972850532645267 -0.02155358684887173 0.002326958702922418 
-0.0005746276984875965 -0.0139964216473041 0.0113603090353476 -0.006064202959167312 -0.02962402455994653 0.01140980051884844 
-0.01498136340412294 -0.022234332327819 -0.009435669105782831 0.01466824698939042 0.02300690044022089 0.01642375959822904 
-0.02064625864704559 0.001935903236494797 -0.009932990848975009 -0.01502091714576305 0.01103728419186848 0.01135432170963552 
0.03664680193031164 0.007935556513533022 -0.006432726178316464 -0.01835759167722958 -0.03074241820933177 0.003308774348347927 
0.04916600632017359 0.05405817610250537 -0.01280401571314829 -0.02969614264223807 -0.03075949782505676 -0.03850325767011078 
0.02841462312054916 -0.01912075774636106 -0.003243857364114929 -0.007093229279899238 -0.02326827646028521 0.01957656645056816 
-0.002980545794502324 -0.01305091182250943 -0.004175158014742048 -0.01809205648681338 -0.01128407739507125 0.01193070260078901 
0.01873703486363943 -0.006221991901504497 -0.01368732356766395 -0.006743550760248082 -0.009949712830987721 -0.0118578004873044 
0.03357177438997624 -0.01886238535124648 -0.0250402950012107 0.04840830058477497 -0.03596321054838841 -0.01209754034470971 
0.009784762015786595 -0.03463274078045848 0.01113935298121285 0.005852488991270688 -0.02439129198795974 0.01680106482780691 
0.02108398396936531 -0.02490659195604756 0.003882354954566052 -0.005922170255020102 -0.01724451765928316 -0.005284636783092042 
-0.0142908275754746 -0.002514966567607802 -0.0101682756758742 -0.01268811461985653 0.004144071212478854 -0.007297184477818952 
0.00933659297067424 0.01303180590441734 -0.009884220723072157 0.006911874392845613 -0.02349067333236522 -0.006535955707953898 
0.005439103706629527 0.02790062681649522 -0.008108214546294205 -0.01291713642410211 -0.0161695200317672 -0.01042107015779153 
0.02973790117594833 0.05617828597932743 -0.01252386820703774 -0.03423308769018207 -0.02941388345401 -0.005402206932737878 
0.03960853624073597 -0.01551657462860124 -0.00518807228828627 -0.01992666352446884 -0.01202367934602483 0.01062745772917737 
-0.004840840981000932 -0.003527156785303889 0.01249003687349194 0.01054343854332004 -0.01716268792694017 -0.009893233890323667 
-0.007673739719131926 -0.03868545851148573 -0.02160705077450701 0.03197979681525265 0.02533480668228447 0.004669901091510846 
-0.008745421659456592 -0.04388310341911594 -0.03055938150716946 0.04324981641052284 0.016098481295775 0.01155658437307873 
0.03273681387724966 -0.04298847269475016 0.00648882947808206 -0.004267611445227533 -0.02177686725996363 0.00951940258178673 
0.006138023510640992 -0.02547505624744259 0.008330748869937428 -0.01261457996908941 -0.03724295240684246 0.01146766062323192 
0.02798895164135781 -0.02475174132412363 -0.02461657829998871 -0.001815286941362495 -0.03386211933181654 0.01796707737782833 
-0.03621441101175574 -0.01329363780065054 -0.01190550868296954 -0.009834649103217914 0.02364887547460861 0.03899116232030576 
0.01461760394644447 -0.02058725295333457 -0.01390930124074823 -0.01444335730423814 0.004076168598475787 0.007359922155930496 
0.03036555074535723 0.003280587317194674 -0.02124719618953351 -0.004806111773245924 -0.02467184386536873 -0.009019909219915787 
0.02849081069245733 -0.00703722474272303 -0.01532670685294763 0.01256810625894616 -0.02328892077633326 0.004823536251100967 
0.06861926813842351 -0.02757461838772308 -0.001400753728531796 0.002406368938978256 -0.04441855292641501 -0.01920729039557549 
0.06687545892691255 -0.02542369070501262 -0.009210722823404573 0.005402292578066638 -0.0525432799808325 -0.01864863136208694 
0.02691231926094389 -0.01036944099645222 -0.0157503834368739 0.0172023445681366 -0.01126522324667448 -0.01872785380121723 
-0.0004059584370323434 0.02093534859438236 -0.01967452194002867 0.0001621186503028795 -0.0083201177985163 -0.0102172999962707 
-0.01541461300506646 -0.01049338662414154 -0.01681521331835205 -0.01660367799617382 0.03160886803297316 0.00333460110927268 
-0.01244260137815629 -0.03080057757002305 -0.02291535088781487 -0.01305517631768815 0.038969171547069 0.0239689312266968 
-0.05254106603053782 -0.01185151470025367 -0.0197310185563079 -0.004118014340943024 0.01216477674861837 0.06654624799477149 
-0.03234545246296286 0.01466283008989529 -0.0006275999145605166 -0.02321035768717096 -0.01148757661661089 0.03795969576882415 
0.001276522026357014 -0.006195672672627504 -0.002584334800389299 -0.01221753394694318 -0.005903329984319978 0.002638996199072562 
0.003340732694075009 -0.009000379112237378 -0.003049888329873268 -0.01095940056902823 -0.01840840598664381 0.005972368114534641 
0.02169632208359711 -0.02242948678689178 -0.0113225714467644 0.005625856268713022 -0.00341533420918381 -0.005655838273616852 
-0.0176901727306679 -0.02688635432363665 0.009754414722364177 0.03527676761035816 -0.009046209649641061 -0.01283889124285434 
0.003261865426056756 -0.02794627462672025 -0.01721664514422678 0.005246165132829492 0.01522801047404381 0.003640747507864655 
0.004584608883868978 -0.02692113779596943 0.005949545722166541 -0.001645406564637518 -0.0120270844799945 -0.002413945154173954 
-0.0223166513471607 0.005624597195952565 0.002527561869171516 -0.01805828791353333 -0.02667770807271937 0.03943391772500595 
-0.05581224152832816 -0.02634634185477433 -0.02274410855429092 -0.004738157910032498 0.03416172531736431 0.06198053268075119 
-0.01279857962047987 0.0006155375128872081 -0.008384752876435765 -0.0206934234976001 -0.002331416127744963 0.003294816714738389 
0.01806952335176945 -0.02776371748086129 0.005516008875660098 -0.01813258142559385 0.01490117837254271 -0.006104433293421072 
0.03058061147223563 -0.003100806607156288 1.532280792468162e-08 -0.003598797050182252 -0.01473912671837656 -0.007916997328315708 
0.0211573895786844 -0.007881629231673902 -0.04403919475228016 0.05259464528303009 -0.004714789152601039 -0.006115790115003359 
-0.000177528033986572 0.0005824557612594195 -0.005086756783710928 -0.001910420396940191 -0.00454731123755467 -0.009268446087201888 
0.03950565148757926 -0.02781475274267837 -0.007090789982588953 -0.01657796086125407 -0.04007073167221716 0.02570728353834666 
0.03138359992469965 -0.01844211645143227 0.003304115248257767 -0.01273506564616507 -0.0370064448287707 0.02038834761765401 
0.07383172713169006 0.03171897382210279 -0.007275200638103435 -0.02004123782429598 -0.03269117577624767 -0.02884487896794351 
0.02164472223704052 0.01553310227648666 -0.004920340336541115 -0.01418027632818797 -0.01299175706143881 -0.01381586102146554 
-0.01190890301081696 0.001517318012599721 -0.01417118658031737 -0.01773686603432123 0.02695702149333196 0.0008120114665262481 
0.01236690782687161 -0.03500678364110131 -0.01237326766441786 0.002170080334212812 -0.0289304207882425 0.04212279024093931 
-0.001161296083551644 -0.05154684268324386 0.009269142385409145 -0.02024815453948759 -0.01796407510235385 0.04379654112269284 
-0.002058681616307168 -0.03133388230781362 0.00968470652557759 -0.01267562694952738 0.006354311353631736 0.02467171583136458 
0.01347726499766107 -0.03962464325060548 -0.04264524755051147 0.03765067357918458 0.01380095101686869 -0.0001069056456088434 
0.001228801101976664 -0.02448323361910737 -0.01944853778129153 0.005646045955421803 0.009425681256954132 -0.002307167527885583 
-0.00600203042386992 0.007671646149067981 0.01173457300852942 0.001804156011886488 -0.007678776602989528 -0.005981485370711256 
0.04127394979748612 -0.001693745822418749 -0.001704252827637498 -0.02369966598154945 -0.0135934752578456 0.0037931254852814 
0.002320886337522613 0.04534360358330343 -0.0007324191415600614 -0.01871450154580773 -0.02152823791438952 -4.42941076015826e-05 
-0.008863013894621383 0.03207408774072881 -0.004857727104675356 -0.01710339575885814 -0.01426146933168204 0.01046403951282583 
0.003444051940536377 0.03138585354424023 -0.01655404475647005 0.006462160298441377 -0.006661664852548577 -0.007639074882969968 
-0.05072519283357259 -0.007264631221934914 0.001800052765285616 -0.004649984804818273 -0.008630816583766951 0.05875294573816813 
-0.005431185185912631 -0.008158147930315338 0.0114602974256367 -0.001229694030410011 -0.02600662047533214 0.01856575141712273 
0.02186707953607244 -0.01756313747966409 0.02229976621389842 0.008400078611817831 -0.04130339860900549 -0.02159539895956782 
0.02799607994663985 -0.01948803330620879 -0.006642453416623994 0.02190609195649031 -0.01978437493287248 -0.005945327730742422 
-0.0002995303795495759 -0.01412459045622424 -0.002264894240268624 0.004255334382977777 0.01547933982124815 -0.02056403399355708 
-0.02170736705586028 0.03929947969426097 0.003276739022646193 -0.02711930947361274 0.002689805124005923 -0.01231045214408275 
0.02059071496407849 -0.01630612059016927 0.002180383939816003 0.0005821778885411727 -0.01939444179994489 0.00580734597654082 
3.246410095612483e-05 0.0007979450768515661 0.007801432176256519 -0.003551322349007815 -0.02063734013447554 0.01107539227262016 
-0.0145374097298576 0.00287905614450397 0.001316166715996689 0.0007475738406796415 -0.01550792496977268 0.003965001898380937 
-0.005871967910196656 0.01818114680186371 -0.003591114911959245 -0.004250862095131211 -0.03013558245421813 0.002453553985660095 
0.0152811037579821 -0.04023053407530505 -0.007013652895724349 0.01867032501611519 0.008741540344947649 0.00225427634292291 
0.01521318376322335 -0.01764164807993642 0.01375940714251344 -0.009931707597755888 -0.0380087109757683 0.01049308419858528 
-0.02977552432778477 -0.02017184064815321 0.01698119413005921 0.03554353756679542 -0.03563204833994196 0.007689111114190372 
-0.01338932241842194 -0.02093086391976901 -0.003027137207168753 0.0159225815993886 -0.002741117921016029 -0.001816602806141546 
-0.04226762037899419 -0.01693066738571177 -0.00335068382520323 -0.005583590447733723 0.009660033348177322 0.04162477591905315 
0.01038269097206419 0.02269019990350468 0.006937901516840051 0.01632878447276557 -0.003101628754720681 0.00789945169709407 
0.081282812730241 -0.02804011046563003 0.003466038205549469 -0.005699237174270789 -0.01703486511247093 -0.03224174909982989 
0.02372515320100762 0.002261038179962267 -0.003555810241295856 -0.02850180165184685 -0.006902726097236946 -0.003472804976861762 
-0.008872895857321077 -0.01012194922528477 0.0002749969433079649 -0.01293085046088483 0.002600996462609536 0.002325403445217449 
0.004085304469161167 -0.01465348329589955 -0.002522080943458096 0.02255886213814667 0.01436529036710164 -0.01229439308990145 
0.002611897263376213 -0.003457458274059325 -0.0006413522375026665 -0.00348610321136407 -0.004763000794475184 -0.004394015303821198 
0.00427449533051633 -0.004377136444375261 -0.0007701773190295536 -0.002638437624513401 -0.00590063157783304 -0.00371876505303613 
0.009223018661186761 -0.002453243213710795 -0.00104866923236814 -0.003170344045491093 -0.006272482199390695 -0.009595459863342594 
0.002094036680301481 -0.01107574747172993 -0.0005894352586388173 -0.004685761529583867 -0.000762500447219146 0.00138722089598874 
0.00123006955831546 -0.008997684223758141 0.0002613592850570604 -0.003121856382772904 -0.003161058438801247 0.0007149871074158602 
0.006526942244424306 -0.005414204545999548 -0.001110099076910415 -0.003479063037207446 -0.002376209063519645 -0.006399117457708024 
8.258608921895419e-05 -0.01062039857899757 -0.002687260773498675 0.001465646438141288 -0.004020509619303989 0.004977068093132933 
-0.003566015865577284 -0.008591752649515375 -0.002452195202336126 0.00220474339744829 -0.002743070703851396 0.003777124570742831 
0.003992068926947127 -0.004166139864021818 -0.002159287410936891 0.00112289601637374 -0.0009085691278406216 -0.0102547270822619 
0.002807684068665734 -0.007228325930141815 -0.00245607082192628 0.0008466788689747618 -0.01238407689779323 0.007783608819802911 
-0.001974223665635567 -0.005238248148432954 -0.002448960899345592 0.001502570969294554 -0.01061235172550513 0.007308270429179664 
0.007040676207353233 -0.001069343473012678 -0.002003896805178437 -1.287701180781114e-05 -0.008279943326852708 -0.008318949639288484 
0.004469439794250353 -0.01170171966372402 0.001943283200892551 -0.003766856183153624 -0.002175634533798826 0.002230981557133574 
0.00248551277615206 -0.01001241403337382 0.002765346759035202 -0.002995943117216644 -0.003733131113471325 0.001196347726059658 
0.009805957119032278 -0.006293975223558072 0.001563913418018496 -0.003862579766213099 -0.003051184287482519 -0.007002954842190693 
0.003843469579868623 -0.007944501653393984 0.002857517468753841 -0.007264389035874334 -0.002931922288592766 -8.660666593346583e-05 
0.004837552989744227 -0.007509928358331711 0.002885024539332702 -0.006252462802420103 -0.004519658933851414 -0.0009138618389111935 
0.009534267370460113 -0.005648853755847014 0.002036101109226486 -0.006810376302174787 -0.004801267930433675 -0.00505772997587694 
0.01235399195848605 -0.0052692348951486 0.002972063096966922 -0.005639448915550924 -0.01345584472324708 -0.004261089148192007 
0.01247269579043671 -0.008889204717280259 0.002386516484689717 -0.004373999816981393 -0.01350852781696426 -0.000659453731844176 
0.01591310590476894 -0.006970438280403886 0.002656515491325184 -0.005180712552892185 -0.01338080542494092 -0.006145720306897585 
0.004481138444696458 -0.01851700359190318 0.003044796434138667 -0.006514067652156549 0.0007793266570979066 -0.001358257712793131 
-0.002616417952000318 -0.01707256192286854 0.002838602986290429 -0.004311117842592665 0.0003399034184407632 0.002672751368011346 
-0.0001231690466337473 -0.009905407698594026 0.00163789145592979 -0.005259274876992507 0.002818072005704244 -0.00812752092419358 
-0.001072903689859834 -0.0150913532112029 0.002329253286595239 -0.007602451249878643 0.01059353297088131 -0.001814341811706408 
-0.01113180527392861 -0.01052426838135788 0.002289893401524014 -0.005298655015562708 0.01379950386450677 -0.00163032122499067 
-0.006912171899106563 -0.003186044896814556 0.001479316415309635 -0.005807328199281786 0.02358567123457838 -0.023637597378249 
-0.002779864227486272 -0.01176459040896611 0.0008793481184402146 -0.006878500902958403 0.01058704713475389 -0.003604980451674015 
-0.01354916687152756 -0.00728296818809794 0.0008797354422511969 -0.005157221024945691 0.01468711310264453 -0.003928370755778296 
-0.01012521828170293 6.944723965666614e-05 0.0006636596598184203 -0.005696620970560335 0.02560028517411231 -0.02785084828418087 
0.006201006598737856 -0.01990450822178565 0.005060568742123512 -0.008905975709454939 0.002760521394589265 0.0006679582184268934 
-0.00188036750043214 -0.01705696206393664 0.004740340513925036 -0.006301815797167795 0.0032464109710746 0.001686558555765104 
0.0006715223146450553 -0.008610250978600045 0.002776344654354486 -0.006969371700633732 0.00676537325868213 -0.01098137203242364 
0.009448938679370354 -0.00674006474258295 0.0008702457790756991 -0.00699786166001722 -0.006998050118881727 -0.002298111595443908 
0.007762585835615668 -0.009443876394175876 0.001947552856780583 -0.006062901706605422 -0.007495454149342431 -0.0002244262523189148 
0.01073631081725285 -0.006497948027492992 0.001937018605224234 -0.00673579433003872 -0.007304549211080576 -0.005095683092441086 
0.00879315904441004 -0.0125440913636726 -0.001028843270065042 -0.00193023973686335 -0.002326846660126137 -0.001428128185737288 
0.007737002693953408 -0.01331425722820884 -0.001490757696986427 -0.001230039204091894 -0.001799212463144022 -0.0004688920416820425 
0.009646664757864408 -0.009723162647209535 -0.001317279552600829 -0.001984770036044826 -0.001547927745467002 -0.005321650128566665 
-0.01659313664955981 -0.009386762888800563 -0.002200920674610502 -0.004179266081514314 0.006173923839988752 0.01561387158984465 
-0.02351889982186493 -0.004944900113728093 -0.002570204835354253 -0.002794552130859806 0.008299090572547964 0.01366580320014322 
-0.02054065673316056 0.003254607074938021 -0.002487416898068369 -0.003639624875414569 0.01094965023921609 -0.00282396105069359 
-0.003351153697359978 -0.02230454250802544 0.002841519217790762 -0.01239435328499112 0.0144433559674301 0.003601030931853144 
-0.01250263963341109 -0.01309706840107205 0.001586420167244931 -0.008093105036311403 0.01945970995271008 -0.003731529621270165 
-0.0135853299106322 -0.004753251990846818 -0.0004649877286015824 -0.008002184342646197 0.02944263645272195 -0.01993351564347844 
-0.005622142654480853 -0.02086950511564264 0.005600445903023776 -0.01407858512022982 0.02080885716605714 -0.008822134367620572 
-0.01509180997159323 -0.01137810131065664 0.004665445229640463 -0.009108884075782827 0.02538289858478511 -0.01624363661254413 
-0.01738777139140905 -0.002666348562258218 0.0009430881677988415 -0.008481414079150885 0.03712498754158024 -0.03001807364846546 
-0.008887891397110149 -0.01433139541312121 -0.003831836441891262 -0.007234105908512683 0.007059894237682364 0.02018205274243052 
-0.01780422439561258 -0.009327616684147427 -0.003563042641973578 -0.005423246373677553 0.01004584974326537 0.01710325904375232 
-0.0171480388476621 0.0007253894610826096 -0.004285843405499166 -0.005168700574695849 0.01431849934168564 0.0003903537023419694 
0.009059728742624895 -0.009569465093416003 -0.0003509437447793301 -0.002709746405508651 -0.002373170073306709 -0.00195969419023693 
0.006073900858374564 -0.00952256090729659 0.000123532463318708 -0.002389383856243584 -0.001701747752519369 -0.0009165080943715527 
0.008178870689964835 -0.005734783462443386 0.000637233379761187 -0.003789024149191788 -0.001289543281889725 -0.006550329059117319 
0.007386212110930978 -0.01829438337476264 -0.002532118206011767 -0.003530657637434009 -0.001613990331556513 0.006567578556186179 
0.007398571859784463 -0.01811948694629369 -0.002453557475519238 -0.002651156124918079 -0.001187760040459791 0.00452954231543511 
0.008668961163049754 -0.01549256300990206 -0.001866712708212179 -0.002876429088696916 -0.0002098679881682251 -0.0006947045990936552 
-0.00401808485054059 -0.01484806610640596 -0.002278193534686756 -0.003944624774028505 0.007774637775771124 0.008164654910902243 
-0.01105470876042037 -0.008403544000926261 -0.002625496465177159 -0.001128287716187691 0.01213232277135119 0.001526136226415435 
-0.0114364850356358 -0.00159644669758431 -0.001872944572097844 0.0001970415683032938 0.01456349970910361 -0.01132210593284302 
0.01688684285389107 -0.03141026085930874 -0.0001967155233827482 -0.005658685001849319 0.006218989276015925 -0.004115499932633529 
0.006116374468481265 -0.02422063918927151 0.001985049290691422 -0.0006234288287453647 0.009750395834940783 -0.01461335807944412 
-0.001118999763990546 -0.01456592820742098 0.0008908800788821211 0.001622454600094125 0.02120181938140907 -0.02948247426772737 
0.01623180256501545 -0.03383673377453049 0.003544361874470508 -0.007922532722338111 0.007661804584623564 -0.006608935009529539 
0.002730571226514813 -0.02723356678406985 0.006783855106299477 -0.003342533664353223 0.01279417880542177 -0.01492496081754078 
-0.007217149529017843 -0.01768638794232595 0.005921508197547791 -0.001520950487800715 0.02664344493933447 -0.02815953649185642 
-0.0001250200587400838 -0.01658829237989866 -0.0009280424845910121 -0.004986017954874588 0.005897928834070533 0.008701246843878492 
-0.009719696187259387 -0.009077779694451484 -0.0003297314823968816 -0.002042753614737058 0.01081329732661152 0.001708236961428887 
-0.01288145696390619 -0.001170164380301065 0.0008378086981562399 -0.0004039025777730376 0.01526739796295356 -0.01266564363754331 
0.008327575833881117 -0.01183479498505638 -0.0007536226264718915 -0.004176941930291623 -0.0001595755089837611 0.0009672053221536427 
0.0060826427662805 -0.01071573355155154 -0.0002883835023651498 -0.003586309118465126 0.0004453653498361626 -0.0001968785704364896 
0.008099863855795 -0.007472961059680119 0.0006786315683078098 -0.004382273846063398 0.001369902070110873 -0.006421354960495723 
0.003301026785405911 -0.01365274021252027 -0.002030852601128635 -0.004056414505031376 -0.005683978045098646 0.01250354799883962 
0.004025463295255368 -0.01318198863881461 -0.001586195775353553 -0.003748951748718858 -0.005574641788691417 0.009940533173430771 
0.007134099706207877 -0.01125186451288087 -0.001052366847723803 -0.004203997231460022 -0.004821967931717084 0.004273781456525264 
0.005669400887720679 -0.01554293082455228 -0.002364051610997586 -0.004664554256203799 0.007270906276631069 0.01021725175317278 
0.003321913172268033 -0.01138632538329633 -0.002299218380250088 -0.001781184597942112 0.009315436167256715 0.003084659246383881 
0.007063221733327863 -0.00522874255647211 -0.002346004990436628 -0.0006766763034815722 0.01247358021174514 -0.01051064723857266 
-0.01607069273395252 -0.01784966509439767 0.00182320973830302 -0.006182182623638418 0.01713115997730892 0.008763047353674377 
-0.02359036733033162 -0.01187857061280907 0.003298125133609442 -0.002724066895412107 0.02220583040554959 -0.001544820884763611 
-0.02536256070021753 -0.004845761604110609 0.003606672117468877 -0.001131457715413911 0.03097322836797585 -0.01755996395251893 
-0.01564308869230546 -0.01838460369293011 0.004298973872880293 -0.005732794846824401 0.01964154646328294 0.004595784539193319 
-0.02387130958312517 -0.01092811967471115 0.00525800156296075 -0.002327778750451965 0.02496694306903623 -0.005108171300830277 
-0.02754188172419663 -0.003283974350403337 0.006279123880024931 -0.0002437413241245486 0.03328746401486759 -0.02167041739043735 
-0.008225271062534532 -0.01269099466877795 0.0001012403719124678 -0.001618922799658297 0.007000759837983888 0.0100399168298889 
-0.01529898928921967 -0.007373178959455343 0.001253840660765846 0.00139676730470229 0.01070540518005261 0.003055089299961668 
-0.01536132486939933 -0.000932120706057898 0.002731056254336513 0.002474512055267976 0.01564082631651016 -0.01140709985321078 
0.01158647043056217 -0.01471899427812129 -0.002025943600890489 -0.00228426328596607 -0.00181145397504373 0.004797629629714917 
0.01131143382404468 -0.01368971610101132 -0.001970915986710221 -0.001562659972169451 -0.001376070946619505 0.002351378284846553 
0.01589034554040967 -0.01149691214641722 -0.001377796812109205 -0.002549975449524112 -0.0007353632434408447 -0.004566028864321206 
0.01789077563214079 -0.01027120328804891 -0.001351500973597528 -0.00595540857570684 -0.003608915836893288 -0.009588256769873215 
0.01864034112880138 -0.009821281167752839 -0.001225972670598407 -0.005833205686866656 -0.003191653598727257 -0.01185359543046164 
0.02294949950778603 -0.007672255940919769 -0.0007095206885717694 -0.006437717966329711 -0.002462799743039561 -0.01917612715147036 
0.007284867476831043 -0.008535288604041649 -0.00423974408980349 -0.003945323607806938 0.009425504609218619 -0.003343222923815083 
0.007020987052949882 -0.006820637608095179 -0.00377470917664143 -0.003555756054908292 0.01168552973000301 -0.008471280258329671 
0.01262009277438148 -0.002344364054407076 -0.003087613501692736 -0.003863264374539207 0.01453150335436625 -0.02256362422798377 
-0.00929753401339581 0.001761619469898746 -0.003398559197053656 -0.0008947206046676869 0.01250778720131511 -0.003611405387063131 
-0.009707862295035757 0.004554762181043437 -0.003407121498375477 -0.0001491206112547663 0.01521417842300901 -0.009804418752642359 
-0.005416255367246414 0.009368560199879359 -0.003028808473197245 8.504138126383692e-06 0.01977486648783665 -0.02439187584904529 
-0.01172019073288196 0.007482926870811119 -0.003513182652977077 -0.0002262995208299175 0.01531286026297494 -0.01178380263379466 
-0.01070016684300226 0.009635602634692327 -0.003794743864055211 0.0004673386841424953 0.01840046612180799 -0.01850039278937705 
-0.005622572430351725 0.01408360191313601 -0.003171811116549464 0.0004206760766803824 0.02273653981395583 -0.03376495447521652 
0.009575884253439467 -0.005208425145250978 -0.003155104011771864 -0.002755341345063781 0.008302150118239746 -0.007544180610563291 
0.009362619474864895 -0.003163163442096573 -0.003129151611811526 -0.001882105677800019 0.01078819203303892 -0.01307901235538623 
0.01440028570235337 0.001974820408455109 -0.002381107276524998 -0.00190899041896953 0.01417327650584193 -0.02800838240988852 
0.01699303830058464 -0.01068367498648025 -0.003194849630580397 -0.002237601917549027 0.001420622982902342 -0.009952662637403735 
0.0174210098089636 -0.01013327278768927 -0.003090364949017783 -0.002275748871953666 0.001922563150308195 -0.01210489077822556 
0.02338106598742213 -0.008304401455515018 -0.002623945737029742 -0.003526498891666787 0.002660559633904723 -0.02028202368625528 
-0.004391829914988134 0.001683412743431886 0.001254602303210205 -0.001576008987649183 -0.002269208446349201 0.003908135407098441 
3.060937226298591e-05 5.050858369326332e-05 0.0006789780477659498 -0.0003472287274895685 -0.0003816453298911145 -0.0002472614696924378 
-0.002897506883831559 2.070347559308158e-05 0.001065858532371408 -0.001349291784957841 8.046755400497327e-05 0.002975914234619801 
-0.001117877997196278 0.0002450760741334322 0.0003275308481507353 -0.0006706839527584092 0.0009666439499999307 -0.0005187549312401296 
-0.0009117785729622253 0.0002579224715281545 -4.513281990141717e-05 -0.0002107542355564475 6.494956416555301e-05 0.0005537329414530827 
-8.954743199082351e-05 -1.494260668173591e-05 0.0001503167397675048 -0.0002832819998792773 -6.236674660246742e-05 0.0003388660666383323 
-0.002546680867248796 7.855790653343877e-05 0.0006944113557528142 -0.001151903352421641 0.0009540286507259639 0.001022330768392466 
-0.001137934005840747 0.0002158923637900921 0.001124393172359613 -0.001140798678321311 0.0001610015818749958 -0.0006781234756884352 
-0.001836050363886191 -6.894710072464903e-05 0.0008739647104363848 -0.001102064482312041 0.0007267544787820488 -0.0003493169673730088 
-0.0006953526337917523 0.0003912822125791657 9.672050421427367e-05 -0.0001845761691382789 -0.0001561734886980417 0.0004567556547225928 
-2.510602891461904e-05 -1.55084670107032e-06 -1.694065894508601e-21 5.901983957747895e-06 0 -0.0001140189545515652 
-0.003233834471433872 -4.927385888656857e-05 0.001282806513344879 -0.001870938036226252 0.001526706599244462 0.0009962556520479225 
-0.0006302524770741626 -8.200357483325404e-05 1.444928147876519e-05 4.330173940444093e-05 -0.0002034413646354835 0.000662061749718684 
-0.0001782452139726541 0.0004676707553193169 -5.163586692138126e-05 5.672124630787983e-05 -3.811648262644352e-21 -0.0002810385520172374 
-0.0002660185046253035 0.0002352743304679278 2.889856295753039e-05 -2.601871834980589e-05 -0.0002775793098693138 0.0004163811761991138 
-0.004293643612963386 -0.0003359889535240756 0.004278567960828213 -0.004087816404181447 0.0008015987633914076 -0.000895393419193686 
-0.002656671878407024 0.001117560916806203 0.0003325239760222953 -0.0008705597866652382 0.0006519403694535431 -0.000858633502346153 
5.293955920339377e-21 5.991825498750349e-05 8.462063039824546e-05 -0.000104129341051172 -4.031791856249758e-05 5.379305813407979e-05 
-0.0001791352317665037 0.0001580392421577904 0.0003879707708207359 -0.0002362484006354781 -0.0001534847882975784 0.0001343615891587908 
3.267777372680113e-05 0.0002285453744186032 0.0001049473395852149 -0.0001312477314171316 -3.000961027184448e-05 -0.000322439579390602 
-0.0009339129971022839 0.0005156330539429348 9.495579358572864e-05 -0.0006945618801072864 4.092928682082738e-05 0.0004004334202534968 
0 2.662223680930997e-05 -4.235164736271502e-21 2.8692061693712e-06 -6.274993770667797e-06 0 
-0.003561307463077827 0.0007020169201740217 0.0008940206400279575 -0.001293862271950175 0.002862269485470529 -0.002371427081765754 
-0.004444413583074075 -0.001678682311869698 0.003517136025044544 -0.00407170049149918 0.001528646276311698 -0.001207420107867626 
-0.001054974112800267 -0.0008839532577157979 0.0009374193366812671 -0.0003887740181445795 -0.0004516119534210863 0.0004040068187266916 
-0.0004023075885953627 0.0001603184303884272 5.082197683525802e-21 1.551810760864423e-05 5.082197683525802e-21 0.0001636320394977705 
-8.912260698632706e-05 0.0001584989182998849 -4.650134951118951e-06 3.152221098756271e-05 0 -0.0001070265292862503 
-0.0006070132729254838 0.0001279627311406784 -4.650134951118951e-06 9.193004260040825e-05 -3.598555621848521e-05 0.0004898476627069753 
-0.0001884425779869043 -0.0001244060598694659 0.0001329687925662447 -3.197457342697627e-05 0.0003654267144990469 -0.0001177630757426518 
-0.0003146596499044236 0.0001330504019996863 -4.650134951118958e-06 -6.645941665884993e-05 0.0006246390794631908 -0.0003765858634591139 
-3.674833464418178e-05 -8.767858371594796e-05 8.442823092640537e-05 -0.0001406753875511984 0.0001576579963721631 -0.0001840128080981498 
-0.006973684241014 -0.001490973058062091 0.003332038672446456 -0.003714120560204911 0.001989603573245953 0.001148598054271246 
-0.000989333925111345 0.0004398091587347887 0.0002592892742375124 -0.0003481960982526531 -0.0003737221704848826 0.0007339834444677492 
0 0 -4.235164736271502e-21 -2.12977627983263e-05 -8.470329472543003e-22 0 
0.0006191125820731149 -0.0003144444511472849 -4.457722321664337e-05 -0.0001517873326453212 0.0002459867591645427 -0.0004633354216673971 
-0.0002969490609212377 0.0001464563579881071 -4.235164736271502e-22 -5.685616983990248e-05 0 0.0001627528112054391 
-9.146005355655864e-05 0.000420046092471534 -1.694065894508601e-21 -0.0001083509703845815 -4.330645026566985e-05 -0.0001196028572551429 
0 0 0 0 0 0 
-2.029970023232574e-05 0.000221711898864661 0 -6.275842595878185e-05 0 -7.352170187595359e-05 
-0.0002560612812304956 5.456373761898266e-05 -4.235164736271502e-22 -3.214128802014258e-05 0 0.00018723170732992 
-0.001666164750852851 0.0004813312734642363 5.136999959758843e-05 -0.000279550306999601 -0.0003404513379758049 0.001953198536060924 
0.0002771008854524723 -0.0002286943242331009 0.0002061478526149721 -0.0004806184594107206 -0.0006577809979165197 0.001532100579612499 
-0.0005496744311605616 5.245192423112853e-05 -6.583566786298625e-06 -0.0001151741720988828 0 0.000323332794346254 
-0.004055791034954702 0.00229399662853083 0.002706005701920004 -0.002035092098483382 0.001124227703903474 -0.002228873784264869 
-6.073287964058598e-06 -5.070696984610952e-05 2.866424234140608e-05 2.260711817825564e-05 -9.529120656610879e-22 0.0001419497178264349 
0.0001786530262273747 1.431146356942298e-05 -4.235164736271502e-22 2.891041812938465e-05 0 -0.0002818981057175964 
-4.612040575309096e-05 3.427561609136982e-06 -1.694065894508601e-21 2.865633136983307e-05 0 0 
-7.734514218891861e-05 0.0001980572846896699 0.001566620418935529 -0.0009037843581389053 -0.0008772113280613241 -0.0009572879807273319 
-0.0006058327706990145 -0.0001146020670881048 7.932398589208211e-05 -0.0001017916786323456 0.0008267479982191242 -0.0003351263307244652 
0 -5.423804059515708e-07 2.866424234140608e-05 0 0 0 
0 0 0 0 0 0 
3.388131789017201e-21 0.0001286235590408139 2.054054897091678e-20 -7.107649984629324e-05 -7.517417406881916e-21 -7.19726142555148e-05 
4.023406499457927e-21 0.0001690773446616594 0 -3.509312199005553e-05 0 -7.19726142555148e-05 
0 0 0 0 0 0 
-7.900263922697188e-05 0.000128304854775153 8.645369707044938e-05 -0.0002989383673423195 -0.0001258137192235404 0.000415379378640469 
-0.000781592648159954 0.0001520359769111264 0.0001060847783138337 -4.033935897056377e-05 -0.0001345248172164048 0.0005007013405949257 
-0.0003641215977769182 0.0001580615416368366 -4.650134951118948e-06 -0.000181359705318016 -9.314884433627362e-05 0.0002969909581154102 
0.000190503146515809 -0.0001572800482848633 -9.736467956080877e-06 8.898551384142822e-05 -1.684613674887816e-05 -0.0001578073873323199 
0 0 0 0 0 0 
-1.329237667461236e-05 9.841921152333804e-05 -5.163586692138126e-05 1.968774586552359e-05 -3.811648262644352e-21 -0.000107882230413976 
-5.827937510992247e-05 5.26882769146078e-05 0 1.643294879603216e-05 -0.0001105118438534889 0.0001570786895012762 
-2.678116587694119e-05 4.58676901954117e-05 0 3.865305940748709e-05 -5.729876588538881e-06 -1.549087620438849e-06 
0 -0.0001692967607364812 -4.65013495111895e-06 -5.456322615337801e-05 0.0001571128791900342 -7.799994561826628e-05 
-0.002756380613863415 0.001085616586171923 0.0003497219071509041 -0.0003999122066062572 0.0001460129550807872 0.0001508844997198504 
-0.0006331109648789775 0.0002272228613031434 -8.44555240758773e-05 -0.001493057612989739 -0.0005747551213376272 0.001996750338718745 
4.599377047198856e-05 -0.0001315647834089114 2.094670598184422e-05 -0.0001656398046146648 -9.226279087071526e-05 0.0005099472074236535 
-0.0008109087534880217 -0.0002954416541594613 0.001325254687340797 -0.000589953070337824 -0.001735158379823759 0.000881359650581966 
7.924638323789294e-05 2.634115831748369e-05 0 1.581679104859745e-05 -0.0001105118438534889 2.553991643827579e-05 
-0.0002881983666898179 0.0004164587308380278 -1.933431835179668e-06 -0.0001407047956858456 0.0002720237236533747 -0.0003292801872256317 
-1.711155436386378e-05 -2.550625821579604e-06 0 2.003188652749612e-05 0 0 
-0.0001201739882340158 7.393393678041065e-05 0.0002364107659549123 2.837331252583427e-05 -0.0002066005454315605 -0.0001959892580082175 
0.0001511481651003198 2.031623512512175e-05 -3.844505954124289e-05 -6.946452719104599e-06 -1.684613674887816e-05 -0.0001862201825050338 
8.59340465581765e-05 -6.378443723650163e-06 8.829422423350455e-05 -0.0002368256066329696 -0.0001353763106302423 -0.0001105939093568072 
-0.0008545950713898364 -0.0004111557899421674 6.942486590938107e-05 -0.0004188808322146492 0.0004851623963001089 0.0002185202826810753 
4.409693904694598e-05 3.005949201399477e-05 0 3.678196248229036e-06 -0.0001105118438534889 6.582748504893849e-05 
0.0003375099011498832 5.606727813894962e-05 -3.166499988802909e-05 8.111590922077381e-06 -2.39216962963293e-06 0.0001042362177093947 
1.422750653591208e-20 -5.540473425286955e-06 0.0002623766358114322 5.672124630787983e-05 -0.0001451604650591814 0 
1.422750653591208e-20 1.583648783286667e-05 0.0002623766358114322 -1.062818283690152e-06 -0.0001451604650591813 0 
0 0 0 0 0 0 
0.0002438899297402518 -6.626503002199604e-05 -3.844505954124289e-05 -2.91916152467596e-05 -2.31211305195459e-05 -9.226472271967832e-05 
-0.0005080829430834534 -0.0001628390901200641 -5.800295505538971e-06 -0.0001375103372310832 -0.0001732166830171084 0.0007238066247063886 
-2.203893731162492e-05 -4.168131449417039e-05 0 6.70665824740326e-05 0 0 
-1.948175778684891e-20 0.0001637171045413426 0 -7.479843535114172e-06 -9.529120656610879e-22 6.99771035709202e-05 
0 6.687829105315173e-05 -4.235164736271502e-22 -1.005531371465644e-05 0 -1.549087620438849e-06 
-0.0009888204782217045 -0.0003405090335261644 2.727589487562464e-05 -0.0001566058071637264 -0.0002006705551862474 0.001183756082774746 
-5.510661544562725e-05 -3.011948575260211e-05 6.997894944764016e-05 -0.0002858755976985452 0 0.0003048258184139638 
-0.0005098786258861235 0.0003993217944185953 -1.964432402300663e-05 -0.0003599153786764175 0.0009681273955055847 -0.0009962910075363087 
-0.0001259426435064607 0.0004098622055558431 2.866424234140608e-05 -2.890200265952908e-05 0 -0.0004135633334630973 
1.348041179380292e-05 4.235164736271502e-22 0 0 0 -0.0001140189545515652 
-8.470329472543003e-22 0.0001637171045413426 0 1.450491981463989e-06 0 -7.19726142555148e-05 
0 0 0 0 0 0 
-6.3718273959886e-07 0 0 0 0 -7.279866784243785e-07 
-9.815377338337007e-05 1.359230320553764e-05 -4.65013495111895e-06 0.0001002491684498869 0 3.388131789017201e-21 
0 7.677833319804891e-05 0 -3.396378866321525e-05 0 -1.549087620438849e-06 
-3.444081654519623e-05 -9.900042144897198e-06 0.0001503167397675048 -4.058026171609164e-05 -6.236674660246742e-05 0 
-0.0004600735955372978 0.0007618462313041626 -0.0001450663512868119 -7.924945807235159e-06 0.0003540829031539335 -0.0005430942630936658 
-0.0008823424828152026 0.001090415864558997 0.0003039052265037741 -7.93536525375651e-05 -0.0005814872249288568 0.0004410835631127974 
-8.645953883626541e-05 0.000282170020887583 6.901246086114752e-06 -7.090178257138354e-05 -4.330645026566985e-05 -7.19726142555148e-05 
-1.84826342839524e-05 0.0004683897043941533 0.0001694771929167286 -0.0003453922656955478 -0.0003458108112584157 -7.475460012262267e-05 
-3.018198402234284e-05 4.348231173874222e-05 6.352747104407253e-22 -2.165422583543817e-05 -8.918428433699001e-07 -1.222356335288561e-05 
-0.0002264147388728323 -9.545295224902465e-05 0 -4.316518476264106e-05 -0.0002034413646354835 0.0003329003573121478 
0 0 0 0 0 0 
0 -1.973000027624053e-05 0 4.466720641702946e-06 0 0 
-0.0001866577434659981 0.0001287091342922678 -4.235164736271502e-21 -6.528784473185636e-05 -0.0001151087474621581 0.0001812758429435106 
-0.0006795902629721115 0.001050375096503193 0.0006342230070788372 -0.00214137358211907 0.0002467210945950632 -0.001929092419592154 
-0.001104685047310064 -0.0005005569159617468 0.004735923567530983 -0.004034042815122179 -0.005018185338017212 0.00704088190588415 
0.0007189716724403977 0.0001631418927072157 -5.163586692138127e-05 -8.46016396439811e-06 -3.284012473002784e-06 -0.000791319816451605 
7.435810441567136e-05 0.0004090017052022756 0.00118567842599951 -0.002024125499949302 -0.0005650098216320436 -0.0009636822754277665 
-0.0005307970809055545 0.0002052341991754958 -4.428217102021027e-06 -1.227848699730996e-05 0.0004721833130852362 -0.0002062841591127979 
-0.0009504199453976661 -0.0001107206439055295 0.0004877146102719427 -9.628938798673479e-05 -0.0004441043372778603 0.001620766811556649 
-1.040550849646501e-05 0.0001018758756199425 0 -0.0002407466605324633 -0.0002034413646354835 0.0002947380933366197 
-0.001496237386928801 0.0001187725086115509 0.0003040486623871911 -0.0005457921236651303 9.883519973654012e-05 0.0007111798378043026 
-0.0004815373997230039 0.0003896080692998085 -1.302246790108494e-05 -0.0002413278495887838 0.0008686811490723566 -0.000398810877109686 
0 -3.637442296278751e-06 0 2.416696896769749e-05 0 0 
8.470329472543003e-22 -5.540473425286955e-06 0 5.672124630787983e-05 0 0 
0 0 5.732848468281216e-05 -2.12977627983263e-05 -8.470329472543003e-22 0 
-0.0002840233134918544 0.0001683040144625885 -1.694065894508601e-21 -7.670933120389645e-05 -1.03083082906532e-05 0.000159068451863243 
-0.000162157355980915 0.0001692575779666296 0 -5.685616983990248e-05 -4.235164736271502e-21 0.0001053991503879672 
-3.444081654519623e-05 0.0001987942343929744 0.0001458885226654839 -2.839866085772326e-05 -0.0001578674405913793 -0.000239308512850099 
0.0002220983962569822 0.0002640066989152938 -3.84450595412429e-05 -7.112428017674795e-05 -1.923830637851102e-05 -0.0003432099893452724 
0.0002831890535069739 0.0003418666298361563 2.669959644174311e-05 -6.117339855343141e-05 -0.0001566842275367502 -0.0003295101251654835 
-5.194816894706556e-06 3.84422935560719e-05 0.0002437740432115059 -9.677933436642345e-05 -0.0001752313246471922 0.0001473945213000978 
-3.444081654519623e-05 -3.257730164850377e-05 0.0001503167397675048 -4.439673767438618e-06 -6.236674660246742e-05 0 
-1.754723401667682e-05 7.445115751983897e-05 -1.602602925010452e-05 1.09380659293614e-05 -5.729876588538894e-06 -0.0001740825216927943 
-0.0003642232740208138 0.0001019504907945142 -5.163586692138127e-05 -0.0001670174527992206 0.0001055926676739993 0.0003294744082087376 
-0.0006191639259827953 -0.0001516665963976905 3.103023903113231e-05 -1.822425901417602e-05 -0.0001626434798958594 0.001112166189989977 
-0.0003157393037759695 0.0004479566655405918 0.0003935649655879832 -2.236824444423351e-05 -0.0003362437326240319 4.036588025020145e-05 
-0.001828625451190235 0.001707466930335725 0.001611615888838257 -0.000588835997333487 -0.001252329549218791 -0.0003061664298125992 
-0.0008882679835880038 -0.0001035897680423936 0.0009933820064461944 -0.0007102758656661586 -5.432478998992484e-05 9.963507047083661e-05 
1.422750653591208e-20 5.751780347250052e-06 0.0002623766358114322 1.895105171340614e-05 -0.0001451604650591814 0 
-0.0007828526416031356 -7.068361096991751e-05 1.036468102345779e-05 -0.0003277152416722007 -0.0001889428551275482 0.001079723291478821 
-8.028741963242808e-05 5.24727924581551e-05 -3.176373552203626e-21 -3.773121711665917e-05 -0.0002216828704484635 0.0002085827950254126 
-5.827937510992247e-05 2.83106299190515e-05 8.9689482521824e-05 -8.150732200181481e-05 -0.0001148385255529836 0.0001570786895012763 
0 0 0 0 0 0 
-0.0005748663509575813 -9.029815763602567e-05 -6.817623220432596e-05 5.98615000591736e-07 0.0003901673462813228 8.315688402156191e-05 
-0.0002585266847580661 -4.658403475232993e-05 -5.163586692138126e-05 -1.623844935848195e-05 -1.824150581298003e-05 0.0003404279541689159 
-0.0002758557533902442 0.000339849668805453 0.0002299398659909242 -0.0001796911014152656 -0.0001231293314376909 8.337856489843251e-07 
3.388131789017201e-21 0.0002301068024787828 0 -6.420108984299398e-05 -1.658330206132098e-05 6.997710357092019e-05 
3.388131789017201e-21 0.0001458901353941102 0 -2.822248023050203e-05 0 -7.19726142555148e-05 
-0.0005411677342362484 -0.0003220975194861286 0.0002141588669569374 -1.315703244853005e-05 -0.0001812490592892691 0.0003001670999500641 
8.470329472543003e-22 -3.811777507379074e-05 2.541098841762901e-21 7.417478360843911e-05 -8.470329472543003e-22 0 
0 0.0001304495260100343 0 -6.22383773214886e-05 2.117582368135751e-22 -8.409614828161055e-06 
0 -3.637442296278751e-06 0 2.416696896769749e-05 0 0 
0.0001268093987947603 4.255030058855917e-05 -1.955352651308843e-05 9.388713089327872e-05 0.0003348795978243519 -0.0003660447390581822 
-0.001396581082705037 -0.001307032388227331 0.000215599836576029 -0.0005690314077593045 0.0003188344865642891 0.0006441822091295253 
0.0001754648803589128 -5.69013139485214e-05 0 6.522741712973478e-05 0 -0.0002750375785098742 
-0.0005166539253650646 -0.0003303312721625659 0.0002359647606046017 -5.573148885423736e-05 -0.0002449318242214656 0.0008873158535084064 
-0.0002969490609212377 4.108698292564218e-05 -4.235164736271502e-22 7.547920108391456e-05 1.905824131322176e-21 0.0002347254254609538 
-0.0009220611161994884 -0.001277417979313191 0.0005035693062342318 -0.001140369841497839 0.0008611350901094497 -0.0001503539847082772 
-2.506480157223829e-05 5.134714452140311e-05 2.866424234140608e-05 1.400509612581117e-05 -7.519657820202282e-05 0 
-0.005346103027751549 -0.003361859268349514 0.003510107639149393 -0.002537157436723201 -0.0001155665385517552 -0.001948773905579503 
-0.001796765403717171 1.437135240475552e-05 0.0006823621859882647 -0.0005134843445118203 0.001294907164517706 -0.0006249316411794561 
-0.0008470836419353818 -0.000579878645975697 7.662581326016047e-05 3.044401136805655e-05 -0.000211944350409941 0.0007268346634951603 
-3.188145868461959e-06 2.960954886888694e-06 0 2.039954051425358e-05 -1.824150581298003e-05 1.694065894508601e-21 
0 -1.647717569070269e-05 -4.65013495111895e-06 4.352792214200715e-05 0 0 
-0.0006932984439815306 9.356113253170093e-05 7.650325304338695e-05 -0.0004694422732263922 0.0004767199773914274 0.0004961829752976959 
-0.0002000552870477679 -7.081424090138843e-05 0.0001290287351904661 5.380917283719249e-05 -0.0001878923875214368 -0.0001553196647442282 
0.0002047633241223526 0 0 -1.256997885022242e-05 0 -0.0003367030526327821 
-0.0005720351066427218 0.0003030968339717562 2.866424234140608e-05 1.400509612581117e-05 -4.78433925926579e-06 0.000153934575781739 
-0.002022854576729331 0.001135372235796238 0.000422444072555124 -0.001020592866757673 0.0003215857639310585 -0.001406399288719021 
0.0001459503773383082 -2.405799626952937e-05 0.0004352084290505048 -9.924393938107462e-05 -0.0002375368219334933 -0.0002027433156541339 
-0.0002087833747032234 -1.694065894508601e-21 0.0001311883179057161 4.235164736271502e-22 -7.258023252959067e-05 0.0002876931864187334 
-7.953247208374529e-06 6.263939829394013e-05 -1.694065894508601e-21 -1.647243179614739e-05 -7.519657820202282e-05 0 
0 0 0 0 0 0 
7.113753267956038e-21 3.025967910558873e-05 0.0001311883179057161 4.235164736271502e-22 -7.885522630025852e-05 0 
0 0 0 0 0 0 
-8.470329472543003e-22 0.0001393988071327102 -4.235164736271502e-22 3.067172390161006e-06 -7.137435689287033e-05 1.601794184992744e-05 
0 0 0 0 0 0 
-0.000447310124548648 0.0001478086515623123 6.901246086114749e-06 -0.000210219139145666 -3.232941205226853e-05 0.0005537451533438289 
-0.000161108780250436 8.28655283562457e-05 2.423602523938505e-05 -0.0002061272373497381 -0.0001122742767645733 0.0002835465252121835 
0 0 0 0 0 0 
-0.0004452603864257407 -0.0002245960435187824 0.000171880435403196 -0.0003858711655871842 -0.0003787608078904084 0.001078880675178526 
0 0 0 0 0 0 
0 0 0 0 0 0 
0 0 0 0 0 0 
-6.371827395988922e-07 0.0002575568907622586 -4.42821710202102e-06 1.693079958537777e-05 -7.725918817593181e-05 -0.0001557935429725728 
-3.620847117162443e-05 -2.727706635968619e-05 -5.286790380561347e-05 1.543344197129959e-05 0.0004474834342446493 -0.00028205118910089 
-8.470329472543003e-22 0.0001637171045413426 0 -1.349235320226399e-07 0 -7.19726142555148e-05 
-3.444081654519623e-05 0 0.0001503167397675048 -4.160555835283756e-05 -6.236674660246748e-05 0 
0 0.0001273703766909003 0 -3.078324506274782e-05 0 -1.549087620438849e-06 
-0.0004059691034161604 -0.0001282475582568986 -2.429150107228531e-05 4.937632630478827e-05 -3.954098122359943e-05 0.0005235161066746842 
-5.645514697858643e-05 0.0002184844418034068 0 -5.685616983990248e-05 0 -7.197261425551479e-05 
-0.0005033976882608693 -0.0001751392319554741 0.0002570340501897453 -0.0003160268209631187 -3.798224817853402e-05 0.001099409684038105 
-6.934798447240163e-05 -0.0001578756364796944 2.866424234140608e-05 -6.726715877952481e-05 0.0001200814226950323 -7.645085799782746e-05 
-0.0002335732625607935 2.550686781115253e-05 6.352747104407253e-22 -1.412902778187706e-06 -0.0001374844288876716 0.000440995501905372 
-0.0004516788163493573 -1.507115256102116e-05 1.270549420881451e-21 -4.200737796335979e-05 0.0005989618315353586 -2.544332823813715e-05 
-1.711155436386378e-05 -2.674749877849663e-05 0 3.782725829647511e-05 0 0 
0.0001188537324423298 0.000273074803013155 -6.361648937200671e-06 -0.0002794683016548159 -0.0003558971310134382 -5.467564768335754e-05 
-0.0003321649222666509 0.0001508472247206147 0 -0.0002835977342465544 6.776263578034403e-21 0.0003854407613796618 
-0.0007140672857889848 0.000556268825451723 -4.428217102021023e-06 -0.0001806330179638203 0.00043686804743377 -0.0002756619378748495 
-0.0005785522511281462 0.0001420961117530898 -8.401631468486001e-05 -2.967576539600648e-05 0.000526147882555266 9.415235246147664e-06 
-0.002652256245026585 0.001122924940271365 0.0001970584007855291 -0.0009125341398502724 2.510273697585825e-05 0.003005549463123704 
-0.002892395323588941 -0.0006341492021368403 0.0002332303217012818 -0.0004252035277942152 -0.0007780858722082957 0.002887484549313104 
-5.827937510992243e-05 -6.932773794688881e-05 0 -0.0002079315697075003 -1.849832778565719e-05 0.0001861134737913874 
-6.768554319890931e-05 -1.240462746875912e-05 0.0004101656622307979 7.249391488878702e-05 -0.000431132857063633 0.0001638088002166418 
-0.0002838912453547472 0.0001531249881199425 -2.429150107228531e-05 -1.863276445368031e-05 -3.954098122359943e-05 0.0001963686271390159 
1.109661756671229e-05 1.012138329612071e-05 0 1.43511727558875e-06 -0.0001163051083385217 -0.0001622877368969936 
0 0 0 0 0 0 
-0.0003697060929714489 -2.521520600836684e-05 2.866424234140608e-05 -7.292666672515116e-06 -5.082197683525802e-21 0.0001589655671952896 
